-0.403539 -0.472316 -0.415672 -0.472613 -0.638422 -0.477417 -0.49793 -0.49793 -0.606421 -0.490318 -0.575181 -0.48698 -0.449692 -0.49793 -0.49793 -0.498595 -0.440649 -0.208417 -0.49793 1.12342 -0.406355 -0.469701 -0.503494 -0.818884 -0.49793 -0.49793 -0.49793 -0.49793 -0.49793 -0.36801 -0.569781 -0.449661 -0.472999 -0.341806 -0.498366 -0.628313 0.789943 -0.468689 -0.387671 -0.500949 -0.49793 0.246106 -0.402373 -0.478088 -0.485103 -0.49793 -0.618399 -0.478951 -0.49793 -0.425936 -0.425936 -0.425936 -0.425936 -0.425936 -0.425936 -0.425936 -0.425936 -0.425936 -0.425936 -0.425936 -0.425936 -0.425936 -0.425936 -0.425936 
0.536497 0.519451 0.50884 0.512902 0.177162 0.476957 0.471126 0.471126 0.236495 0.507608 0.351128 0.488109 0.492033 0.471126 0.471126 0.470276 0.528418 -0.0892467 0.471126 -0.674349 0.536162 0.526807 0.470939 0.402338 0.471126 0.471126 0.471126 0.471126 0.471126 0.576583 0.24861 0.54602 0.484243 1.42762 0.470805 0.561838 -0.0133547 0.470532 0.582503 0.468538 0.471126 0.421275 0.519435 0.470336 0.470602 0.471126 -0.137477 0.471724 0.471126 0.549728 0.549728 0.549728 0.549728 0.549728 0.549728 0.549728 0.549728 0.549728 0.549728 0.549728 0.549728 0.549728 0.549728 0.549728 
-0.632362 -0.680952 -0.633031 -0.696324 0.0700553 -0.617448 -0.694631 -0.694631 -0.850528 -0.696441 1.65619 -0.669048 -0.682862 -0.694631 -0.694631 -0.695405 -0.636978 -0.773078 -0.694631 -0.84782 -0.624631 -0.684172 -0.694287 -0.771912 -0.694631 -0.694631 -0.694631 -0.694631 -0.694631 -0.622453 -0.538796 -0.649893 -0.673514 0.28974 -0.695182 -0.945876 0.0050916 -0.674199 -0.615367 -0.698312 -0.694631 -0.735397 -0.680011 -0.695584 -0.687454 -0.694631 -0.625339 -0.695111 -0.694631 -0.650273 -0.650273 -0.650273 -0.650273 -0.650273 -0.650273 -0.650273 -0.650273 -0.650273 -0.650273 -0.650273 -0.650273 -0.650273 -0.650273 -0.650273 
-0.562595 -0.585243 -0.609182 -0.589359 -0.913867 -0.613425 -0.616145 -0.616145 -0.676462 -0.611872 -0.681469 -0.613988 -0.582295 -0.616145 -0.616145 -0.616601 -0.594617 -0.586208 -0.616145 -0.497478 -0.566091 -0.589853 -0.644145 -0.640151 -0.616145 -0.616145 -0.616145 -0.616145 -0.616145 -0.548887 -0.639589 -0.562779 -0.617874 -0.268042 -0.616461 1.90519 -0.756069 -0.616498 -0.558644 -0.619094 -0.616145 -0.672036 -0.543873 -0.612297 -0.616436 -0.616145 -0.938643 -0.616424 -0.616145 -0.572411 -0.572411 -0.572411 -0.572411 -0.572411 -0.572411 -0.572411 -0.572411 -0.572411 -0.572411 -0.572411 -0.572411 -0.572411 -0.572411 -0.572411 
0.169806 0.169855 0.205376 0.166381 0.183736 0.168563 0.170001 0.170001 -0.324017 0.181892 -0.053833 0.181706 0.188749 0.170001 0.170001 0.189385 0.169869 -0.110872 0.170001 -0.144051 0.169777 0.189415 0.12908 0.17614 0.170001 0.170001 0.170001 0.170001 0.170001 0.172693 1.51357 0.16989 0.191571 0.0803468 0.169141 -0.0166766 0.286181 0.168339 0.169813 0.164514 0.170001 0.100201 0.169718 0.169918 0.168831 0.170001 -0.0345999 0.169115 0.170001 0.169297 0.169297 0.169297 0.169297 0.169297 0.169297 0.169297 0.169297 0.169297 0.169297 0.169297 0.169297 0.169297 0.169297 0.169297 
0.646091 0.633103 0.6072 0.606328 0.349957 0.611541 0.614885 0.614885 1.29304 0.634384 0.40554 0.632744 0.613233 0.614885 0.614885 0.627968 0.617041 0.138172 0.614885 0.0666405 0.630314 0.635752 0.848835 0.488895 0.614885 0.614885 0.614885 0.614885 0.614885 0.635065 0.38984 0.613517 0.596962 -0.292742 0.613124 0.199977 0.220521 0.609816 0.639709 0.603325 0.614885 0.476884 0.625711 0.610127 0.611525 0.614885 0.403683 0.628889 0.614885 0.607359 0.607359 0.607359 0.607359 0.607359 0.607359 0.607359 0.607359 0.607359 0.607359 0.607359 0.607359 0.607359 0.607359 0.607359 
0.872655 0.884396 0.906735 0.856029 0.481497 0.878753 0.881534 0.881534 0.5908 0.912683 -0.0641928 0.898094 0.876369 0.881534 0.881534 0.873355 0.887165 0.116324 0.881534 -0.562383 0.883133 0.877177 0.850548 1.31419 0.881534 0.881534 0.881534 0.881534 0.881534 0.875763 0.370374 0.876936 0.873889 0.23964 0.880522 0.538532 0.877885 0.877523 0.899608 0.869081 0.881534 0.347389 0.894182 0.906417 0.878952 0.881534 0.536126 0.879127 0.881534 0.856939 0.856939 0.856939 0.856939 0.856939 0.856939 0.856939 0.856939 0.856939 0.856939 0.856939 0.856939 0.856939 0.856939 0.856939 
-0.873989 -0.848195 -0.862297 -0.857583 -0.619177 -0.874554 -0.873959 -0.873959 -0.897501 -0.833785 -1.01241 -0.846747 -0.858423 -0.873959 -0.873959 -0.864634 -0.856226 -1.03108 -0.873959 0.0860198 -0.865985 -0.847684 -0.882537 -0.815321 -0.873959 -0.873959 -0.873959 -0.873959 -0.873959 -0.841893 -0.588318 -0.873676 -0.860752 2.20426 -0.874473 -1.20778 0.201221 -0.856991 -0.873885 -0.877193 -0.873959 -0.999009 -0.843776 -0.874809 -0.874395 -0.873959 -0.907164 -0.874393 -0.873959 -0.873967 -0.873967 -0.873967 -0.873967 -0.873967 -0.873967 -0.873967 -0.873967 -0.873967 -0.873967 -0.873967 -0.873967 -0.873967 -0.873967 -0.873967 
0.780042 0.776049 0.767116 0.732277 0.221575 0.775666 0.760538 0.760538 0.935131 0.75816 0.824553 0.766126 0.749172 0.760538 0.760538 0.754134 0.759908 0.795559 0.760538 -0.190273 0.771865 0.767435 0.691235 0.66027 0.760538 0.760538 0.760538 0.760538 0.760538 0.769072 0.54381 0.766683 0.739764 -0.108771 0.759512 0.429776 -0.281226 0.763594 0.797984 0.75032 0.760538 0.124044 0.764085 0.757494 0.758325 0.760538 0.48143 0.769901 0.760538 0.741855 0.741855 0.741855 0.741855 0.741855 0.741855 0.741855 0.741855 0.741855 0.741855 0.741855 0.741855 0.741855 0.741855 0.741855 
-0.410864 -0.409299 -0.395395 -0.42731 -0.347091 -0.411792 -0.410817 -0.410817 1.71734 -0.413159 -0.516498 -0.410409 -0.411452 -0.410817 -0.410817 -0.38357 -0.390995 -0.61174 -0.410817 -0.635572 -0.388548 -0.405622 -0.698964 -0.25892 -0.410817 -0.410817 -0.410817 -0.410817 -0.410817 -0.411868 -0.261627 -0.406448 -0.408938 0.42823 -0.411556 -0.768964 -0.630341 -0.41176 -0.392377 -0.42903 -0.410817 -0.534073 -0.385877 -0.412192 -0.411567 -0.410817 -0.489603 -0.399979 -0.410817 -0.39956 -0.39956 -0.39956 -0.39956 -0.39956 -0.39956 -0.39956 -0.39956 -0.39956 -0.39956 -0.39956 -0.39956 -0.39956 -0.39956 -0.39956 
0.985935 1.04352 1.05367 1.39995 0.673028 1.08635 1.12241 1.12241 0.588406 1.08243 0.663723 1.0809 1.02442 1.12241 1.12241 1.0895 1.04478 0.235377 1.12241 0.0589253 0.999919 1.06489 1.30254 1.04414 1.12241 1.12241 1.12241 1.12241 1.12241 0.964494 0.629067 1.02993 1.03172 0.277571 1.12137 0.628038 0.20172 1.09402 0.96473 1.3498 1.12241 0.835768 1.00363 1.09692 1.11215 1.12241 0.382509 1.08917 1.12241 0.892428 0.892428 0.892428 0.892428 0.892428 0.892428 0.892428 0.892428 0.892428 0.892428 0.892428 0.892428 0.892428 0.892428 0.892428 
0.31266 0.321016 0.301652 0.294023 0.0336543 0.297946 0.298889 0.298889 0.141983 0.305672 0.223816 0.297972 0.309057 0.298889 0.298889 0.297337 0.302464 0.0184363 0.298889 -0.652788 0.331308 0.307214 0.345722 0.276447 0.298889 0.298889 0.298889 0.298889 0.298889 0.329049 0.218075 0.301545 0.29235 -0.162613 0.298377 1.28006 0.0710742 0.305306 0.35133 0.296011 0.298889 0.315321 0.311339 0.297726 0.29815 0.298889 0.639253 0.298347 0.298889 0.342978 0.342978 0.342978 0.342978 0.342978 0.342978 0.342978 0.342978 0.342978 0.342978 0.342978 0.342978 0.342978 0.342978 0.342978 
0.393414 0.355433 0.353706 0.83149 1.52798 0.356992 0.355553 0.355553 -0.173886 0.359985 -0.225193 0.354538 0.356011 0.355553 0.355553 0.353776 0.364201 0.119146 0.355553 0.0490353 0.389312 0.354258 0.266991 0.338266 0.355553 0.355553 0.355553 0.355553 0.355553 0.380687 0.08906 0.35538 0.347997 0.23915 0.35514 0.105787 0.108702 0.354317 0.37168 0.273936 0.355553 0.240451 0.371063 0.35428 0.359175 0.355553 0.400551 0.354962 0.355553 0.367628 0.367628 0.367628 0.367628 0.367628 0.367628 0.367628 0.367628 0.367628 0.367628 0.367628 0.367628 0.367628 0.367628 0.367628 
0.425849 0.41864 0.417308 0.403968 0.214835 0.418137 0.4119 0.4119 0.286127 0.411169 0.210069 0.411411 0.410379 0.4119 0.4119 0.410978 0.411846 0.720675 0.4119 -0.25382 0.411811 0.416381 0.405461 0.372708 0.4119 0.4119 0.4119 0.4119 0.4119 0.411372 0.337758 0.417227 0.407274 1.11975 0.411647 0.263498 -0.00546893 0.41131 0.412671 0.409792 0.4119 0.167239 0.411784 0.411305 0.412353 0.4119 0.118001 0.411624 0.4119 0.410958 0.410958 0.410958 0.410958 0.410958 0.410958 0.410958 0.410958 0.410958 0.410958 0.410958 0.410958 0.410958 0.410958 0.410958 
0.814452 0.824548 0.855635 0.787055 0.321766 0.81784 0.82061 0.82061 0.47263 0.818217 0.582875 0.817294 0.823083 0.82061 0.82061 0.816298 0.844786 0.0626731 0.82061 0.277896 0.860985 0.816385 0.797193 0.729584 0.82061 0.82061 0.82061 0.82061 0.82061 0.86285 0.529468 0.831225 0.828696 0.79308 0.819536 0.498817 0.160457 0.821618 0.850751 0.8112 0.82061 0.398318 0.844868 0.817086 0.818114 0.82061 0.351021 0.818602 0.82061 0.810039 0.810039 0.810039 0.810039 0.810039 0.810039 0.810039 0.810039 0.810039 0.810039 0.810039 0.810039 0.810039 0.810039 0.810039 
1.00617 1.04124 1.04068 0.961258 0.438692 1.06077 1.08556 1.08556 0.630436 1.06464 0.610232 1.05692 1.0256 1.08556 1.08556 1.05576 1.01533 0.488948 1.08556 0.545138 0.990127 1.0654 0.984741 0.983432 1.08556 1.08556 1.08556 1.08556 1.08556 0.997802 0.749128 1.04701 1.03745 0.185566 1.08413 0.482225 -0.0216031 1.06328 1.01286 1.04242 1.08556 0.858931 1.03557 1.08274 1.0772 1.08556 0.417769 1.07844 1.08556 0.910623 0.910623 0.910623 0.910623 0.910623 0.910623 0.910623 0.910623 0.910623 0.910623 0.910623 0.910623 0.910623 0.910623 0.910623 
0.31711 0.31723 0.320437 0.307755 0.0704333 0.316575 0.317306 0.317306 0.194475 0.316154 0.201051 0.333128 0.318243 0.317306 0.317306 0.315381 0.317236 -0.309251 0.317306 1.1273 0.325345 0.316425 0.312671 1.01491 0.317306 0.317306 0.317306 0.317306 0.317306 0.316568 0.34296 0.317202 0.337362 -0.65217 0.316923 -0.00821811 0.203307 0.321308 0.321852 0.314902 0.317306 0.139323 0.331933 0.327674 0.316751 0.317306 0.0239434 0.316896 0.317306 0.316506 0.316506 0.316506 0.316506 0.316506 0.316506 0.316506 0.316506 0.316506 0.316506 0.316506 0.316506 0.316506 0.316506 0.316506 
-1.1343 -1.13424 -1.14893 -1.15744 -1.1249 -1.13817 -1.14847 -1.14847 -0.107715 -1.14964 -0.528655 -1.13642 -1.14858 -1.14847 -1.14847 -1.14889 -1.1485 2.0533 -1.14847 -1.25641 -1.14852 -1.14354 -1.15045 -1.17635 -1.14847 -1.14847 -1.14847 -1.14847 -1.14847 -1.14893 -1.20427 -1.14847 -1.14967 -1.03327 -1.14881 -1.26617 -0.804382 -1.13569 -1.12436 -1.15098 -1.14847 -1.39401 -1.14853 -1.149 -1.14873 -1.14847 -1.20859 -1.14875 -1.14847 -1.14847 -1.14847 -1.14847 -1.14847 -1.14847 -1.14847 -1.14847 -1.14847 -1.14847 -1.14847 -1.14847 -1.14847 -1.14847 -1.14847 -1.14847 
1.00095 1.05022 1.04277 0.994554 0.505113 1.06359 1.09656 1.09656 0.167028 1.06765 0.156219 1.06172 1.03407 1.09656 1.09656 1.06332 1.02656 1.12121 1.09656 -0.0276735 0.997939 1.07235 0.996216 0.980891 1.09656 1.09656 1.09656 1.09656 1.09656 0.996716 0.881168 1.04706 1.03304 0.13248 1.09471 0.665416 -0.00123899 1.06693 0.984319 1.06538 1.09656 -0.0408294 1.04008 1.07702 1.09643 1.09656 0.551294 1.07547 1.09656 0.912365 0.912365 0.912365 0.912365 0.912365 0.912365 0.912365 0.912365 0.912365 0.912365 0.912365 0.912365 0.912365 0.912365 0.912365 
0.377689 0.376849 0.376156 0.367809 0.139774 0.376453 0.376896 0.376896 0.299036 0.376236 0.288162 0.376487 0.368064 0.376896 0.376896 0.375425 0.378029 0.098775 0.376896 0.718124 0.376824 0.376377 0.374248 0.419429 0.376896 0.376896 0.376896 0.376896 0.376896 0.384769 0.311806 0.385872 0.37316 0.808208 0.376679 0.0285498 0.0203871 0.376403 0.396498 0.375506 0.376896 0.45954 0.376752 0.407184 0.37657 0.376896 -0.258315 0.376659 0.376896 0.388489 0.388489 0.388489 0.388489 0.388489 0.388489 0.388489 0.388489 0.388489 0.388489 0.388489 0.388489 0.388489 0.388489 0.388489 
-0.271135 -0.275866 -0.2718 -0.293357 -0.406217 -0.266513 -0.275747 -0.275747 -0.655566 -0.278701 -0.0990642 -0.276998 -0.276796 -0.275747 -0.275747 -0.277367 -0.270253 1.07771 -0.275747 -0.721061 -0.275933 -0.277367 -0.282286 -0.0934092 -0.275747 -0.275747 -0.275747 -0.275747 -0.275747 -0.277162 -0.366328 -0.275774 -0.282554 -0.433418 -0.276714 -0.45088 0.74968 -0.27271 -0.272432 -0.28006 -0.275747 0.13912 -0.275978 -0.277613 -0.276796 -0.275747 -0.405597 -0.263641 -0.275747 -0.275851 -0.275851 -0.275851 -0.275851 -0.275851 -0.275851 -0.275851 -0.275851 -0.275851 -0.275851 -0.275851 -0.275851 -0.275851 -0.275851 -0.275851 
0.366978 0.370835 0.35086 0.344828 0.0558198 0.352514 0.354319 0.354319 0.194549 0.351504 0.202439 0.352423 0.370553 0.354319 0.354319 0.404334 0.376974 -0.0247774 0.354319 0.494374 0.383955 0.354187 0.333932 0.324539 0.354319 0.354319 0.354319 0.354319 0.354319 0.405647 0.222589 0.366205 0.350403 0.181307 0.353298 0.980411 -0.0536356 0.351995 0.366497 0.349558 0.354319 0.21967 0.374792 0.351909 0.352763 0.354319 0.353 0.353216 0.354319 0.375112 0.375112 0.375112 0.375112 0.375112 0.375112 0.375112 0.375112 0.375112 0.375112 0.375112 0.375112 0.375112 0.375112 0.375112 
0.567459 0.546433 0.545932 0.530573 0.321944 0.551808 0.546607 0.546607 0.523688 0.547371 0.384483 0.545422 0.542514 0.546607 0.546607 0.544204 0.575527 0.286009 0.546607 0.0511101 0.550496 0.545083 0.601359 0.517997 0.546607 0.546607 0.546607 0.546607 0.546607 0.553062 0.447327 0.546214 0.559204 -0.10761 0.546059 0.362768 0.0781261 0.545124 0.564679 0.542583 0.546607 1.71427 0.546286 0.545221 0.545661 0.546607 0.411893 0.559524 0.546607 0.547223 0.547223 0.547223 0.547223 0.547223 0.547223 0.547223 0.547223 0.547223 0.547223 0.547223 0.547223 0.547223 0.547223 0.547223 
0.266304 0.274231 0.284251 0.126275 1.24554 0.318986 0.266502 0.266502 0.0660648 0.26504 1.22473 0.273996 0.264167 0.266502 0.266502 0.265045 0.267378 0.107586 0.266502 0.318425 0.266358 0.270095 0.226715 0.242954 0.266502 0.266502 0.266502 0.266502 0.266502 0.265579 0.104732 0.268268 0.256247 -0.150387 0.266005 0.145266 0.0157105 0.271326 0.278814 0.230248 0.266502 0.170237 0.266317 0.265385 0.265798 0.266502 0.0283473 0.265976 0.266502 0.275961 0.275961 0.275961 0.275961 0.275961 0.275961 0.275961 0.275961 0.275961 0.275961 0.275961 0.275961 0.275961 0.275961 0.275961 
0.957592 1.11762 0.978094 1.01936 0.323664 1.14913 1.28487 1.28487 0.777594 1.12414 0.760644 1.13207 1.04172 1.28487 1.28487 1.19781 1.05931 0.240636 1.28487 1.27962 1.0056 1.1104 1.15313 0.953609 1.28487 1.28487 1.28487 1.28487 1.28487 0.867715 0.8982 1.07077 1.1069 -0.121569 1.28282 0.217207 -0.60961 1.1953 0.881575 1.24535 1.28487 0.70896 1.04865 1.22258 1.25205 1.28487 -0.147595 1.2055 1.28487 0.927349 0.927349 0.927349 0.927349 0.927349 0.927349 0.927349 0.927349 0.927349 0.927349 0.927349 0.927349 0.927349 0.927349 0.927349 
-0.672832 -0.672848 -0.665144 -0.674169 -0.977309 -0.673276 -0.67281 -0.67281 1.87814 -0.647932 -0.74065 -0.659451 -0.672994 -0.67281 -0.67281 -0.67334 -0.672844 -0.808037 -0.67281 -0.835436 -0.67287 -0.673366 -0.424096 -0.721058 -0.67281 -0.67281 -0.67281 -0.67281 -0.67281 -0.673333 -0.858902 -0.672815 -0.669707 -1.00308 -0.673193 -0.0194912 -0.875461 -0.673219 -0.670843 -0.55659 -0.67281 -0.61537 -0.672888 -0.673465 -0.673156 -0.67281 -0.771798 -0.673145 -0.67281 -0.65122 -0.65122 -0.65122 -0.65122 -0.65122 -0.65122 -0.65122 -0.65122 -0.65122 -0.65122 -0.65122 -0.65122 -0.65122 -0.65122 -0.65122 
-0.284329 -0.278094 -0.311346 -0.321969 -0.447776 -0.31058 -0.310953 -0.310953 -0.415828 -0.210177 -0.360246 -0.295586 -0.296027 -0.310953 -0.310953 -0.311263 -0.301471 -0.538709 -0.310953 1.395 -0.309642 -0.311264 -0.315066 -0.338404 -0.310953 -0.310953 -0.310953 -0.310953 -0.310953 -0.287709 -0.320658 -0.288575 -0.312405 -0.726859 -0.311141 0.966845 -0.516373 -0.300991 -0.310981 -0.313191 -0.310953 -0.371985 -0.29846 -0.311301 -0.311147 -0.310953 -0.335556 -0.311128 -0.310953 -0.294377 -0.294377 -0.294377 -0.294377 -0.294377 -0.294377 -0.294377 -0.294377 -0.294377 -0.294377 -0.294377 -0.294377 -0.294377 -0.294377 -0.294377 
-0.145017 -0.167744 -0.108627 -0.175881 -0.313295 -0.147085 -0.167699 -0.167699 -0.536167 -0.168838 0.124362 -0.168199 -0.168212 -0.167699 -0.167699 -0.16835 -0.154317 1.17105 -0.167699 -0.246581 -0.16777 -0.168337 -0.14569 -0.21471 -0.167699 -0.167699 -0.167699 -0.167699 -0.167699 -0.152317 -0.216281 -0.167714 -0.171072 0.280895 -0.16806 -0.269196 -0.49173 -0.113133 -0.166949 -0.170039 -0.167699 1.0601 -0.167788 -0.168399 -0.15026 -0.167699 -0.218182 -0.156545 -0.167699 -0.156311 -0.156311 -0.156311 -0.156311 -0.156311 -0.156311 -0.156311 -0.156311 -0.156311 -0.156311 -0.156311 -0.156311 -0.156311 -0.156311 -0.156311 
-0.988643 -0.988648 -0.988902 -0.996033 -1.00601 -0.988842 -0.988632 -0.988632 -0.894904 -0.989278 -0.869504 -0.96913 -0.988701 -0.988632 -0.988632 -0.988868 -0.961859 -1.06667 -0.988632 -0.869648 -0.958792 -0.988879 -0.887954 -0.399743 -0.988632 -0.988632 -0.988632 -0.988632 -0.988632 -0.98751 -1.01568 -0.988634 -0.969019 -1.02984 -0.988819 -0.964794 0.114443 -0.988797 -0.966523 -0.990361 -0.988632 -0.754765 -0.988668 -0.98893 -0.988782 -0.988632 -1.021 -0.988788 -0.988632 -0.988634 -0.988634 -0.988634 -0.988634 -0.988634 -0.988634 -0.988634 -0.988634 -0.988634 -0.988634 -0.988634 -0.988634 -0.988634 -0.988634 -0.988634 
-1.02065 -0.99813 -1.05112 -1.06096 -1.14579 -1.05104 -1.05073 -1.05073 -1.12629 -1.05168 -1.10943 -1.05099 -1.05083 -1.05073 -1.05073 -1.05108 -0.990597 -0.873589 -1.05073 2.07271 -0.966219 -1.04613 -1.05731 -1.13251 -1.05073 -1.05073 -1.05073 -1.05073 -1.05073 -1.03814 -1.08094 -1.03023 -1.05179 -0.416059 -1.05101 -1.07181 -1.34388 -1.05097 -0.982415 -1.05287 -1.05073 -0.842778 -1.03316 -1.05117 -1.05095 -1.05073 -0.836895 -1.0288 -1.05073 -1.03285 -1.03285 -1.03285 -1.03285 -1.03285 -1.03285 -1.03285 -1.03285 -1.03285 -1.03285 -1.03285 -1.03285 -1.03285 -1.03285 -1.03285 
-0.454649 -0.454656 -0.439653 -0.462759 -0.457107 -0.447703 -0.45464 -0.45464 -0.587433 -0.455146 -0.476775 -0.454821 -0.447434 -0.45464 -0.45464 -0.454869 -0.454654 0.953597 -0.45464 0.573895 -0.454665 -0.454875 -0.458434 -0.448159 -0.45464 -0.45464 -0.45464 -0.45464 -0.45464 -0.454849 -0.490968 -0.454643 -0.420869 -0.551651 -0.454791 -0.560435 0.711297 -0.454822 -0.454661 -0.456326 -0.45464 -0.597968 -0.454672 -0.407871 -0.454787 -0.45464 -0.53217 -0.408719 -0.45464 -0.45465 -0.45465 -0.45465 -0.45465 -0.45465 -0.45465 -0.45465 -0.45465 -0.45465 -0.45465 -0.45465 -0.45465 -0.45465 -0.45465 -0.45465 
0.0510445 0.0510507 0.0497147 0.033071 0.0254602 0.0502912 0.0511292 0.0511292 -0.149518 0.0495213 -0.100599 0.0503069 0.0499056 0.0511292 0.0511292 0.0499585 0.0510585 -0.216539 0.0511292 -0.596413 0.0510078 0.0655284 0.0459563 0.020457 0.0511292 0.0511292 0.0511292 0.0511292 0.0511292 0.0655898 -0.0511941 0.0538114 0.0459452 1.22216 0.0505957 -0.187364 -0.286785 0.0524501 0.0510274 0.0476201 0.0511292 -0.129339 0.0509737 0.0500214 0.0504653 0.0511292 0.90389 0.0506015 0.0511292 0.0508242 0.0508242 0.0508242 0.0508242 0.0508242 0.0508242 0.0508242 0.0508242 0.0508242 0.0508242 0.0508242 0.0508242 0.0508242 0.0508242 0.0508242 
-0.325763 -0.325772 -0.326146 -0.551001 2.14147 -0.326029 -0.32575 -0.32575 0.238092 -0.32638 -0.439778 -0.325993 -0.325951 -0.32575 -0.32575 -0.326062 -0.325769 -0.429487 -0.32575 -0.45584 -0.325784 -0.326063 -0.306993 -0.345591 -0.32575 -0.32575 -0.32575 -0.32575 -0.32575 -0.326021 0.163547 -0.325755 -0.3272 -0.467091 -0.325942 -0.613794 -0.450058 -0.324891 -0.325778 -0.264623 -0.32575 -0.346783 -0.325793 -0.326102 -0.325947 -0.32575 -0.34896 -0.325927 -0.32575 -0.325771 -0.325771 -0.325771 -0.325771 -0.325771 -0.325771 -0.325771 -0.325771 -0.325771 -0.325771 -0.325771 -0.325771 -0.325771 -0.325771 -0.325771 
0.507067 0.507875 0.514197 0.487536 0.221953 0.506087 0.508213 0.508213 0.204406 0.505258 0.150905 0.505781 0.508618 0.508213 0.508213 0.503683 0.507904 0.156736 0.508213 -0.211047 0.507709 0.505084 0.674977 0.478131 0.508213 0.508213 0.508213 0.508213 0.508213 0.517791 0.399482 0.50746 0.494863 -0.0569009 0.507048 0.424371 0.158334 0.510047 0.511908 0.503389 0.508213 0.407461 0.507596 0.505298 0.506223 0.508213 1.09445 0.506891 0.508213 0.599386 0.599386 0.599386 0.599386 0.599386 0.599386 0.599386 0.599386 0.599386 0.599386 0.599386 0.599386 0.599386 0.599386 0.599386 
-1.12277 -1.12278 -1.12306 -0.901654 -1.19032 -1.123 -1.12276 -1.12276 -0.821616 -1.12352 -1.20527 -1.12296 -1.11247 -1.12276 -1.12276 -1.12303 -1.12278 -1.20216 -1.12276 -0.791473 -1.12279 -1.12304 -1.14279 -1.12904 -1.12276 -1.12276 -1.12276 -1.12276 -1.12276 -1.12306 -1.1469 -1.12276 -1.12357 -0.00571214 -1.12298 0.346326 -1.29956 -1.12241 -1.12278 -1.12466 -1.12276 -1.15396 -1.1228 -1.1231 -1.12293 -1.12276 1.84451 -1.12294 -1.12276 -1.12281 -1.12281 -1.12281 -1.12281 -1.12281 -1.12281 -1.12281 -1.12281 -1.12281 -1.12281 -1.12281 -1.12281 -1.12281 -1.12281 -1.12281 
-0.958793 -0.958799 -0.959125 -0.967909 0.986332 -0.959046 -0.958779 -0.958779 -1.04288 -0.959589 -1.02792 -0.957418 -0.937936 -0.958779 -0.958779 -0.95908 -0.958798 -1.05016 -0.958779 -0.808891 -0.958812 -0.95792 -0.968763 -1.00315 -0.958779 -0.958779 -0.958779 -0.958779 -0.958779 -0.959097 -0.947633 -0.958781 -0.959764 -1.07766 -0.959016 0.86222 -1.13765 -0.958991 -0.958807 -0.960867 -0.958779 -0.953661 -0.958825 -0.959156 -0.958971 -0.958779 -0.533775 -0.958975 -0.958779 -0.958782 -0.958782 -0.958782 -0.958782 -0.958782 -0.958782 -0.958782 -0.958782 -0.958782 -0.958782 -0.958782 -0.958782 -0.958782 -0.958782 -0.958782 
0.0984906 0.0985055 0.0977762 0.093592 -0.0659371 0.0980836 0.0985482 0.0985482 -0.0772242 0.0976781 -0.0291475 0.098102 0.0977943 0.0985482 0.0985482 0.097885 0.0985095 -0.0437912 0.0985482 -0.0723164 0.098482 0.097985 0.0765249 0.0823798 0.0985482 0.0985482 0.0985482 0.0985482 0.0985482 0.0980833 0.0208229 0.0985176 0.0952278 1.02811 0.0982648 -0.111565 0.0357705 0.0980419 0.0984927 0.0958309 0.0985482 1.66101 0.0984621 0.0979569 0.0981905 0.0985482 -0.094655 0.0982653 0.0985482 0.0983387 0.0983387 0.0983387 0.0983387 0.0983387 0.0983387 0.0983387 0.0983387 0.0983387 0.0983387 0.0983387 0.0983387 0.0983387 0.0983387 0.0983387 
-0.514883 -0.514895 -0.515204 -0.526319 -0.376865 -0.515203 -0.514868 -0.514868 -0.6313 -0.515732 -0.769997 -0.515171 -0.515056 -0.514868 -0.514868 -0.515251 -0.514892 -0.381047 -0.514868 0.424791 -0.514911 -0.515264 -0.519313 -0.595678 -0.514868 -0.514868 -0.514868 -0.514868 -0.514868 -0.515227 -0.0865796 -0.514872 -0.516539 -0.686125 -0.508622 -0.717331 1.37233 -0.515171 -0.514904 -0.517216 -0.514868 -0.479221 -0.514923 -0.515325 -0.479212 -0.514868 -0.637843 -0.515099 -0.514868 -0.514881 -0.514881 -0.514881 -0.514881 -0.514881 -0.514881 -0.514881 -0.514881 -0.514881 -0.514881 -0.514881 -0.514881 -0.514881 -0.514881 -0.514881 
-1.56488 -1.59221 -1.58794 -1.59748 -1.47288 -1.57268 -1.5922 -1.5922 -1.23019 -1.58408 -1.23735 -1.59235 -1.59225 -1.5922 -1.5922 -1.59243 -1.59079 -0.791452 -1.5922 -0.99394 -1.59222 -1.59242 -1.58375 -1.62746 -1.5922 -1.5922 -1.5922 -1.5922 -1.5922 -1.58483 -1.49636 -1.57555 -1.5764 -0.701576 -1.5924 -1.40659 -1.40764 -1.59233 -1.59222 -1.59364 -1.5922 -1.3949 -1.59224 -1.59249 -1.59233 -1.5922 -1.39721 -1.59235 -1.5922 -1.58294 -1.58294 -1.58294 -1.58294 -1.58294 -1.58294 -1.58294 -1.58294 -1.58294 -1.58294 -1.58294 -1.58294 -1.58294 -1.58294 -1.58294 
0.385751 0.385881 0.389629 0.379738 0.211707 0.385444 0.385933 0.385933 0.308754 0.385211 0.304863 0.385475 0.375716 0.385933 0.385933 0.384165 0.385885 -0.250952 0.385933 0.295819 0.385853 0.385352 0.383063 0.423287 0.385933 0.385933 0.385933 0.385933 0.385933 0.38544 0.256894 0.385839 0.40488 0.396443 0.385689 0.363449 0.758501 0.385385 0.385865 0.384424 0.385933 0.00685133 0.38576 0.389805 0.385568 0.385933 0.211143 0.387885 0.385933 0.38516 0.38516 0.38516 0.38516 0.38516 0.38516 0.38516 0.38516 0.38516 0.38516 0.38516 0.38516 0.38516 0.38516 0.38516 
0.470732 0.471053 0.469663 0.445427 0.605641 0.470319 0.471157 0.471157 0.27967 0.470016 0.272893 0.470342 0.766163 0.471157 0.471157 0.593319 0.471062 0.170308 0.471157 0.802607 0.471001 0.470118 0.447104 0.43811 0.471157 0.471157 0.471157 0.471157 0.471157 0.49493 0.370264 0.470937 0.466867 -0.0629308 0.470754 0.10864 -0.0122682 0.470165 0.471023 0.467736 0.471157 0.394889 0.49336 0.470164 0.47051 0.471157 0.863468 0.470708 0.471157 0.459975 0.459975 0.459975 0.459975 0.459975 0.459975 0.459975 0.459975 0.459975 0.459975 0.459975 0.459975 0.459975 0.459975 0.459975 
0.392853 0.393149 0.390696 0.376657 -0.206977 0.391946 0.39332 0.39332 0.213497 0.391257 1.40283 0.391883 0.389647 0.39332 0.39332 0.390814 0.393164 0.246867 0.39332 0.0115661 0.39306 0.39149 0.386902 0.380426 0.39332 0.39332 0.39332 0.39332 0.39332 0.391738 0.25013 0.393069 0.716218 -0.0535277 0.392566 0.205891 0.159021 0.391584 0.3931 0.389131 0.39332 0.243211 0.392993 0.39154 0.39216 0.39332 0.183646 0.392504 0.39332 0.391354 0.391354 0.391354 0.391354 0.391354 0.391354 0.391354 0.391354 0.391354 0.391354 0.391354 0.391354 0.391354 0.391354 0.391354 
-0.507611 -0.507635 -0.508559 -0.515382 -0.116166 -0.508249 -0.50758 -0.50758 -0.625602 -0.509272 -0.598219 -0.508187 -0.507963 -0.50758 -0.50758 -0.508352 -0.50763 -0.39565 -0.50758 1.21947 -0.507667 -0.508377 -0.512603 -0.567402 -0.50758 -0.50758 -0.50758 -0.50758 -0.50758 -0.453902 -0.576725 -0.507588 -0.51047 0.825106 -0.508102 -0.739992 -0.958134 -0.493109 -0.507653 -0.511039 -0.50758 -0.647667 -0.507693 -0.508509 -0.50808 -0.50758 -0.155725 -0.508044 -0.50758 -0.507606 -0.507606 -0.507606 -0.507606 -0.507606 -0.507606 -0.507606 -0.507606 -0.507606 -0.507606 -0.507606 -0.507606 -0.507606 -0.507606 -0.507606 
-1.0512 -1.0512 -1.05143 -0.869959 -0.736449 -1.05138 -1.05119 -1.05119 -0.897789 -1.05179 -0.825924 -1.05135 -1.05125 -1.05119 -1.05119 -1.05141 -1.0512 -1.0307 -1.05119 -0.552714 -1.05121 -1.05141 -1.0656 -0.717165 -1.05119 -1.05119 -1.05119 -1.05119 -1.05119 -1.03175 -1.07752 -1.05119 -1.05188 -1.14977 -1.05136 -0.385715 1.38131 -1.05134 -1.05121 -1.05281 -1.05119 -1.09286 -1.03784 -1.05146 -1.05133 -1.05119 0.15489 -1.05133 -1.05119 -1.04752 -1.04752 -1.04752 -1.04752 -1.04752 -1.04752 -1.04752 -1.04752 -1.04752 -1.04752 -1.04752 -1.04752 -1.04752 -1.04752 -1.04752 
0.785182 0.679394 0.676288 0.658596 0.387581 0.680937 0.679734 0.679734 0.447943 0.677883 0.435482 0.677891 0.672016 0.679734 0.679734 0.67556 0.679429 0.240785 0.679734 0.185007 0.679263 0.677338 0.660671 0.647031 0.679734 0.679734 0.679734 0.679734 0.679734 0.678655 0.506195 0.747099 0.666092 0.382495 0.678983 0.397824 0.245154 0.677494 0.679303 0.673264 0.679734 0.634645 0.679125 0.677682 0.678283 0.679734 0.36409 0.678751 0.679734 1.18849 1.18849 1.18849 1.18849 1.18849 1.18849 1.18849 1.18849 1.18849 1.18849 1.18849 1.18849 1.18849 1.18849 1.18849 
-0.508651 -0.508671 -0.509431 -0.476537 -0.249414 -0.509178 -0.508626 -0.508626 0.547295 -0.510029 -0.380976 -0.509127 -0.508936 -0.508626 -0.508626 -0.509262 -0.508667 -0.669936 -0.508626 -0.289883 -0.508698 -0.509283 -0.468975 -0.391673 -0.508626 -0.508626 -0.508626 -0.508626 -0.508626 -0.509218 2.10461 -0.508633 -0.51108 -0.701595 -0.509057 -0.721918 -0.560693 -0.509131 -0.508686 -0.512695 -0.508626 -0.550962 -0.508717 -0.494651 -0.509037 -0.508626 -0.416767 -0.50901 -0.508626 -0.508647 -0.508647 -0.508647 -0.508647 -0.508647 -0.508647 -0.508647 -0.508647 -0.508647 -0.508647 -0.508647 -0.508647 -0.508647 -0.508647 -0.508647 
-0.383581 -0.3836 -0.384349 -0.394965 -0.41768 -0.384083 -0.383556 -0.383556 -1.02077 -0.384832 -0.847947 -0.322252 -0.383914 -0.383556 -0.383556 -0.384175 -0.383596 2.00198 -0.383556 -0.669547 -0.383625 -0.316628 -0.357516 -0.421108 -0.383556 -0.383556 -0.383556 -0.383556 -0.383556 -0.384108 -0.432849 -0.383564 -0.386119 -0.769941 -0.383951 -0.516125 -0.977373 -0.38406 -0.383614 -0.386616 -0.383556 -0.0980106 -0.383643 -0.384274 -0.380337 -0.383556 -0.464678 -0.383915 -0.383556 -0.383588 -0.383588 -0.383588 -0.383588 -0.383588 -0.383588 -0.383588 -0.383588 -0.383588 -0.383588 -0.383588 -0.383588 -0.383588 -0.383588 -0.383588 
-0.303462 -0.303467 -0.243377 -0.31222 0.104268 -0.303634 -0.303453 -0.303453 -0.239944 -0.303877 0.6639 -0.303615 -0.303647 -0.303453 -0.303453 -0.303666 -0.303466 -0.394732 -0.303453 0.0167914 -0.303476 -0.303661 -0.288558 -0.327647 -0.303453 -0.303453 -0.303453 -0.303453 -0.303453 -0.303632 -0.349431 -0.303456 -0.304555 -0.513495 -0.303581 -0.57738 -0.475344 -0.303623 -0.303472 -0.305345 -0.303453 -0.322119 -0.303482 -0.303687 -0.303584 -0.303453 1.69603 -0.303571 -0.303453 -0.306912 -0.306912 -0.306912 -0.306912 -0.306912 -0.306912 -0.306912 -0.306912 -0.306912 -0.306912 -0.306912 -0.306912 -0.306912 -0.306912 -0.306912 
-0.069286 -0.0693019 -0.0706352 -0.0753586 -0.296585 -0.0676961 -0.0692238 -0.0692238 -0.226865 -0.0709989 0.918247 -0.0700485 -0.0702149 -0.0692238 -0.0692238 -0.0703536 -0.069294 -0.414368 -0.0692238 -0.50044 -0.0693449 -0.0702742 -0.0749977 -0.100238 -0.0692238 -0.0692238 -0.0692238 -0.0692238 -0.0692238 -0.0701082 -0.197421 -0.0692555 -0.0833108 -0.321994 -0.0698065 -0.229108 1.13414 -0.0701431 -0.0693253 -0.072666 -0.0692238 0.653788 -0.0693761 -0.0703847 -0.0699009 -0.0692238 -0.233909 -0.0697837 -0.0692238 -0.0693943 -0.0693943 -0.0693943 -0.0693943 -0.0693943 -0.0693943 -0.0693943 -0.0693943 -0.0693943 -0.0693943 -0.0693943 -0.0693943 -0.0693943 -0.0693943 -0.0693943 
-0.416078 -0.416105 -0.417105 -0.435979 -0.607497 -0.416754 -0.416045 -0.416045 -0.509301 -0.417771 -0.33619 -0.416693 -0.416502 -0.416045 -0.416045 -0.416878 -0.416099 -0.412311 -0.416045 -0.928913 -0.416139 -0.41689 -0.425276 -0.747975 -0.416045 -0.416045 -0.416045 -0.416045 -0.416045 -0.416799 -0.477834 -0.416056 -0.419353 -0.667059 -0.393403 -0.676523 1.81649 -0.402625 -0.416123 -0.419784 -0.416045 -0.510386 -0.416164 -0.417025 -0.414674 -0.416045 -0.737593 -0.416533 -0.416045 -0.416082 -0.416082 -0.416082 -0.416082 -0.416082 -0.416082 -0.416082 -0.416082 -0.416082 -0.416082 -0.416082 -0.416082 -0.416082 -0.416082 -0.416082 