-0.7327693139619309 0.2622499583958182 -0.09434317334570652 0.4728036401064215 -0.25187524987081766 0.3754773027145868 0.013573272559195715 0.5219408180274798 0.5202757655723029 -0.20870022207140604 0.5287142300980969 0.5932247172497338 0.5849519107615806 -0.06560435375461626 0.16043851622236205 0.8676729366171687 -0.3751284141095612 -0.39282437713204454 0.5614460862780672 -0.642270490441434 0.4084726080502936 -0.9721440070632317 0.4624183959317898 -0.28804107569113846 -0.48200297148984617 0.01614996638156163 -0.16003617863437114 -0.21459340921440484 0.9318998577193314 0.1871596335923904 0.6614468324778173 0.9922702851426473 -0.7108260761798886 0.723753338128801 0.8383499597871567 -0.3519430774497332 -0.040730014961628314 0.6990969813452705 -0.0008542299377418683 -0.028951254599090648 0.6247705466077274 0.5775256652407443 0.8810121715376151 0.43225585175350933 -0.5471675146206563 0.32407767263531895 -0.20927593063408811 -0.15529260369514097 0.06049115993272092 -0.18951738354086034 -0.8569852874819262 -0.18483577849080235 0.9447410005706627 0.33830424615287114 0.3496904342657332 -0.08471781382316146 -0.7759446542952593 -0.28437550099557707 -0.19587335018292285 -0.29610007579936415 -0.9647005015393377 -0.6295238007080035 0.3567592529838235 0.18620874398211784
0.9524393020104456 -0.8770920827630857 -0.015692664388835542 -0.10352669188897412 0.5763782351148321 -0.6677664432681916 0.5141580387126718 0.8616935143055349 -0.6480862079083991 0.7242754749773028 -0.11161167796600657 0.217033458007571 0.48400107572117457 0.7479950911954665 0.7143113512447319 0.9510657392036475 0.5721871366519848 0.8372549033540175 0.14832537964924297 0.5834833823430017 0.4084905539000061 -0.39756201949815395 -0.034214554586391 0.041265623940137 -0.31842597108652737 0.41407675186293424 0.4522490794431666 0.6195010702065826 0.8016615336161677 -0.9929906727512376 -0.4237774042321014 -0.03817065780319284 0.548795127811976 0.45965519122061593 0.46626270211159704 -0.07051873115399476 -0.853307970307295 -0.916760883711945 -0.7297869302417859 -0.9025294006371907 0.17108265707308168 -0.14223894296431383 0.8063690800783396 -0.9103401492088445 0.9170957755449101 0.27755709077558843 -0.07286478982864386 -0.982241442026266 -0.7840326809192775 0.751906042315649 0.4650063525063146 0.8740653108887231 -0.9766879575601297 0.2865893887096451 -0.569639228373787 -0.25726087013778054 0.8581340303474962 -0.6722232220521878 0.5856014114409511 0.6133235390664735 -0.3636632329369911 0.3970202716704776 -0.9928615810477759 -0.9734741233940536
0.12024245206878326 0.11117380348823036 -0.46796832503041097 0.6923938662772426 -0.3033851954354312 0.06902207224285117 0.6991618935319743 0.4635179921582535 -0.8900539697855252 0.7925773864716679 -0.7249294949019709 0.3563053621307237 -0.8661884430278863 0.15420416499595513 0.5860538507076274 -0.3667332575305964 -0.1648559273845469 -0.41414616334006826 0.06416938324324994 0.5310329722296119 -0.8645268343856554 -0.07443832995174215 -0.14826639596718194 -0.5238300294828908 -0.7932334172776965 0.8854554209857597 -0.8853512696176107 -0.2102815007676675 0.31808646142477626 -0.9104118570293154 0.44832790366393005 -0.5845043298126213 -0.5016431816611908 0.7158798614141355 0.9608873396273123 0.9954481188561661 0.47820418145776267 0.929579761910206 -0.3815240039031762 -0.7763431459504173 0.5799340775945794 -0.6140777366012331 -0.031126869859711137 0.4836305312060529 -0.04402102168189592 0.1487188284688412 -0.3639145543103568 0.31326208297888636 0.6206616572590993 -0.8474642700147168 -0.5499687224845611 0.08859303062408697 -0.27027480672394777 -0.255898717103729 -0.6565154516768423 -0.40000978738507653 0.040393230110651324 0.8233478119894706 -0.1624200006931904 0.3482516434035263 -0.31217132705594985 -0.4282159473796108 0.035786442323616496 0.6258238001961116
-0.8953300007363394 -0.3469400682529482 -0.2595153805071191 0.4662875355551104 0.1957765073600839 -0.25534998152140953 0.046580438556675485 0.9976296456654989 0.8329956879133966 -0.1251921819926849 0.6052119733478947 -0.8732252138127745 0.4638330343101742 -0.9994049903216646 -0.7353587093701306 0.01996105405832882 0.7601003637323178 -0.4163351172901595 -0.3959292589330188 0.24305124515515897 0.21135134215264606 -0.6404834856692236 0.17992012572033333 -0.045423863969376255 -0.35941583522521414 -0.6055954187741752 -0.8321494452557794 0.9626798184708087 -0.9253224608248596 0.9683600811739848 -0.42352654005286783 0.49958427034375474 0.7680150077203551 0.22611240911349362 -0.8492134016976418 -0.5390134284988048 -0.6619422751531032 -0.8426542516349287 -0.34818062969193564 -0.4746688484119297 -0.6012291661941616 -0.3488116592721442 -0.09438006217321715 -0.9857892212572339 -0.1686866843609811 0.4762289596742346 0.7481440737410534 -0.9252667857056975 0.3903854183154103 0.38495231165056376 0.9700026425381314 -0.5833958768725052 -0.6434498894525524 0.3451384883905573 -0.042298051141767656 0.1304651712570346 0.9855482352381835 0.8509923157398531 -0.013130655266814006 -0.9113455680179186 -0.6282508578460677 -0.1795131738833191 -0.6310904646959443 -0.7163869065822901
0.6096412582558597 -0.23923220553822744 -0.29935105131487605 -0.7460210791236204 0.7156787088466134 0.6071818433429856 -0.17955261050188298 0.4880629864989685 0.7211261091377992 -0.359866744644763 0.8788649448835424 0.8843620791120557 0.9724358980934482 0.5270369410594999 -0.09582159964142423 -0.18165577149592593 -0.7019489130731658 0.2102517131651953 0.46521340929112664 -0.012429027256386282 -0.6478049465811986 0.8866784811029869 -0.995751514866956 -0.7515889560880025 0.8095574532161987 -0.07067384462579973 -0.970352809330667 -0.9990341416222306 0.7970191214778002 0.12320702267193084 0.569340487643569 -0.6512498345162945 0.5483947291410372 -0.9328054603163447 0.15369930638456863 -0.9220902179204395 -0.2867123857231777 0.07248442302663638 0.7061745942263038 0.24346446484128936 -0.5730392300442588 0.03745718340713511 -0.8243829020755757 0.7189405973326313 0.38743724108163313 0.566121180101389 0.0032396834569550226 -0.8042685327636097 -0.4421441803567432 -0.9047610630213019 0.947705624690304 0.05759260280102896 0.5439750996195429 0.9365015734472337 0.9445881317053819 -0.9335716417453448 -0.005928256293415979 0.8708058126584965 0.6268308647899388 -0.7004039080161448 0.2411263515924269 -0.23419361844882225 0.1417673965834385 0.8731647292827938
0.6239211062355827 -0.2985873038959488 0.5916808626492618 -0.3068319838998457 -0.28109463168333604 0.37372919611224975 -0.5027586822793306 0.3719811489593301 -0.27309609726534423 0.3691524552680374 0.5783391563713256 0.5039560838779336 -0.2087922196371561 -0.5554408345821549 0.3625747955828278 0.548572396707361 -0.6828014270001268 0.5803344331107119 0.6955716012254987 0.4492800611561816 -0.21846918961078154 -0.9463077932689228 0.27433769551698384 -0.6445529020747194 0.7706853300371705 -0.4033096752473839 -0.016657711459567626 -0.021626440472671815 0.198234164262735 0.832272819865497 -0.7650171784613464 0.9514751270917443 0.2786414906433585 -0.5480891293425938 0.2990511003719083 0.21441012422131833 -0.8831479180894535 0.18532945446787008 -0.8024798588021607 -0.5243337963700703 0.26127262180753275 -0.875025181902733 0.02862847574845695 0.4052390599582498 0.03399880501448149 0.43379340642310305 0.5299394943275715 0.6900733128018128 -0.6932983291031172 0.701761141019762 0.4839436760779343 0.2211190834137755 -0.4327967089888487 -0.4662302760417658 0.07485700884818014 -0.9632824954205468 0.597552190104544 0.0377679760633034 0.7444790513622215 0.9146993784937836 -0.1293660232085514 -0.04884533460881024 -0.5092179083394102 -0.37519285569454164
-0.44666952548367367 -0.8521820983135833 0.039776758327760176 -0.6360091969820145 -0.6140448075474232 -0.04475396165668322 0.9319061599086536 0.3688745728131404 0.9584432157700673 -0.17070412815902114 0.04355757521594472 -0.8927119538918256 0.24489451991340405 -0.2361352760525528 -0.9628879960530956 -0.32001440016574767 0.7430575451000723 -0.9143910504043522 -0.8638005901125085 0.6864629159810052 0.7344951913198603 -0.44949163141121495 0.5744905143314802 0.9470026459576668 0.23809131551009277 -0.12646704206344794 0.9570831125195891 0.6024102000900837 -0.10659719636279741 -0.8166092472750057 0.7213800094941922 -0.5469105754675152 0.16490930730537068 0.3193974346131667 -0.5422836943722427 -0.35697016423763395 -0.8093468868965115 0.2431919069715911 -0.4634704419710858 0.8626041620094989 0.8331445090190881 -0.6738700884395497 0.7202086332349129 -0.4686465930780035 0.14029048410159928 -0.2124521919557132 -0.5088742727006703 0.4138249311361164 0.5087790932290286 -0.9392862306942742 -0.25649574466709946 0.5119754996958514 0.5303441084400091 0.25924495188693997 -0.4484459576418829 0.925519335714446 -0.7522897513642102 -0.18105721507392736 -0.22011773371455434 -0.01486315866288379 0.8971751672256281 0.12880816372648884 -0.49890733222466244 0.997787701804355
0.21265416702152695 -0.7500129760455747 0.548773957421095 -0.4811884946225016 -0.5969077058677068 -0.18160806217546033 -0.4950478556466289 -0.7135541003066084 0.7887447050120966 -0.1336188373825642 0.5979658940233192 -0.14418772308426253 0.8419492313419872 0.8032900085084702 -0.897733383858998 -0.37528595707314905 0.6382629334305592 -0.42677942792945056 -0.6783568620057701 -0.9176332624633692 -0.21424098050001406 -0.7379193930867678 0.5741765976294604 -0.6496650628012959 0.9127999742952304 -0.7714253274949017 0.22079599248759774 0.7536688333234955 0.8925373111276838 -0.6470318658181227 -0.8884489350255267 -0.8407089918569144 -0.24348197259236448 -0.4707679429481406 0.5760273622547569 0.2630914058817768 0.4627520026700249 0.7884216771291954 -0.9626488965434463 -0.90301805051399 -0.0913328745596047 0.858230450929677 -0.8708215538783484 -0.12266306857674603 0.3427716668766758 0.2086907890268519 0.6114731788191219 -0.8800529983374652 -0.6169955849850275 0.665554956170278 -0.783964689868067 -0.605618035279418 -0.3548047356545103 0.160741468428105 -0.44269440437865515 -0.37560702231819487 -0.9874850251852212 0.8047271610108577 -0.34094325643635415 0.012804190940005844 -0.995488954574294 0.2996476985123162 -0.12875768939916576 -0.7007135472085537
0.5354097820884192 -0.7834876655644789 -0.5492896518395791 -0.6902414133226003 0.2957128827160518 0.12695006251074936 0.6031509344537962 -0.6582227788169415 -0.1240171558003822 0.3822576978204206 -0.026590767636391455 -0.2977863164724026 -0.44189250505307975 0.4218977896969043 -0.8377490660677984 -0.10078805252531664 -0.9106620084047101 -0.278545923655223 -0.7920315443973254 -0.25169735945319593 -0.26066923161717415 0.3826149407868302 -0.9808160986411956 -0.6844381421324328 -0.20231367654493382 -0.7123499625769008 0.26123620043605844 -0.8455655710977683 0.15794705288215094 -0.02532833476907359 0.10293360034916565 0.605631267377863 0.3783218474585295 0.8198939255769793 0.1686379124813322 0.7311693127771095 0.6390880591183392 -0.6871135708535934 -0.045898008166440185 0.7663867024022271 0.6589662585617009 -0.12737009247604636 -0.6930840060601855 -0.504224905708156 0.9603938242418169 -0.7875506136318482 -0.6778734296719393 -0.800741048690716 -0.9353226946718101 -0.8980706288537588 -0.5942832154322217 0.9045694650499778 -0.06281971552575416 0.8503484414826614 0.8413259640027919 0.9246097928896606 -0.2153227145018215 -0.9307108894116234 0.06143100795570389 -0.5684983262370669 0.7709663484485736 -0.9778364899424132 0.4408368152740947 0.7575111606577751
0.50278342889548 0.7951630344915481 0.2992153390089487 0.07476138038646196 0.5537207053700799 0.6122946700131877 0.4560514272047438 -0.8484572226272531 -0.8683538966323421 0.16573083234055042 -0.910904164510743 0.7723522941321026 0.23993014574496896 -0.7485658920866229 0.48299989543594735 0.24953805709783472 0.5924512651725264 0.9820410811309468 0.9095059750450469 0.9762797630165436 0.451917664884528 0.04567088494185301 0.4211156636019264 -0.7360331151511765 0.3871195547683721 -0.8574627237720407 0.19517890769219592 0.17875558807969738 -0.49001330479917127 -0.1076367696331808 -0.47229695632369895 0.32037163896299714 0.5339449662772198 0.0685151520213636 0.4047271533070902 -0.7561896837254594 -0.0599706332858172 -0.9382943928573662 0.6785112612124489 0.020023291668843646 0.5088560766230361 0.04262899725899194 0.2716990291637167 0.9802915123878813 0.5915471747311469 -0.6170600722640476 -0.8991283555125873 -0.21901010149339473 -0.2555600386783725 0.798793063495699 -0.3158439157904196 0.574055003422197 -0.12235138470523421 0.4938869654542939 0.6347466185099346 0.5367348335945406 0.29523359577874286 0.5842704524382509 -0.3247537716144926 -0.3610807190951002 -0.3417904853849765 0.19935526960390337 0.9867475057962007 -0.48636113315618923
-0.09900696600118586 0.23690560068843736 -0.8498272931338915 -0.5303055834034216 0.606475773195408 -0.19676797141597624 0.1024393556198877 0.8065197431775177 0.3186792604343913 0.9484745968852466 0.39487727286235663 -0.915250614836534 0.4271019095991626 0.31780364517261295 0.14996215753418185 -0.6309934863976243 -0.8542811226578415 -0.5824926026692743 0.9295381956745692 -0.6082531350557221 0.6534454805816976 0.49181542798197087 0.4028698819126504 0.26787121922426604 0.6349605983399234 -0.26379074961849147 0.2349136774351508 -0.9129565999889624 0.9658429571105491 0.6729979828822492 0.27895566327085675 0.8656599481615399 -0.5149041659170881 0.7430560741710932 -0.5454132004947079 -0.958229871365526 0.556529130956499 0.8483985814430262 0.4079173668783589 0.206285470513615 -0.4554374623765751 -0.057177396155173366 -0.9111858105294315 -0.18064081898655626 0.7322947944204568 -0.2894255595568924 0.041765380080647674 0.04314637184939918 -0.8686108918187563 -0.4293005865092918 -0.9227438452728054 -0.03384215369055732 0.45623854824085064 -0.8595311039559574 0.9606215536712024 -0.057108574140035895 0.28352227206324954 0.950475381812002 -0.9820417819224536 0.8709048599742046 -0.4747866176559383 -0.9729384125618104 0.29428922248370304 -0.28599285708875044
-0.0933432740447846 0.18709494649891845 -0.7400181218766755 0.7488754713168146 0.4049289963256324 0.7480997994088914 -0.3513321007983039 0.07883037819741645 -0.2544120076084757 0.3931388604426407 0.9473248210372254 0.35491071386130657 0.7530838168355352 0.24108120889788354 -0.12025136753622778 0.9589423297353084 0.4768614673107654 -0.8562947479365057 0.8340092193964654 -0.15374946651585475 0.28383838702399156 -0.5786486956233907 -0.8913045696503887 0.083297386812486 -0.31519251225093714 -0.008831884657631406 -0.34126516620544733 0.8202937828729306 0.9913449595496007 0.7969830885667653 0.8171591203384823 -0.20944376773620021 0.5740530191914444 -0.8057901518579975 -0.35177430630379725 -0.7904785392302904 0.7812012415068468 -0.6795144878518875 -0.7185622164975756 0.3182957685802732 0.9380220592094388 -0.4063087226776618 -0.45167237442042985 0.822991214916484 -0.8684687252255852 0.4977780281237887 0.680343807396538 -0.5592162933986073 -0.8818467911837236 -0.6447110858930698 -0.062427143203228175 -0.7080438666897477 0.5336153223242419 -0.8182171436497894 -0.6246485622838152 0.14406279544085043 0.483941698305014 0.7756218420549144 -0.003310640305625112 0.9904361803688793 -0.5900626771645356 0.09217860481455031 -0.5965597960467788 0.21048058014517235
0.3063707130166635 0.03965900510506626 0.8617912895635096 0.8427466468475535 -0.10086504756905335 0.4918374484295629 -0.14410952677335342 -0.10536076228390812 -0.12921783486130956 -0.37664299134113266 0.5384749418129993 -0.7164243807651984 -0.7718971359667188 0.5455586763984792 0.8574395130111452 -0.9006955595136092 -0.05905988714294064 -0.8704074258166439 -0.9820795176507411 -0.33973927209036714 0.5702333589161876 -0.3378194390876257 0.7301814166988976 0.8943395769877036 0.8856068261328951 0.3497626406793144 0.3589906192721968 -0.28128328892412413 -0.5264434938949025 0.629560701069954 -0.3105531407925368 -0.7804156905221309 0.011425722479014633 -0.6516019603169578 0.4611102556617248 0.8496403820677183 -0.533341481289096 0.37850774814003696 0.2814945643559694 0.11490429898645949 0.4718747606808027 -0.954468849752041 0.22488738868879543 -0.938486422087299 0.21293429137729203 -0.053687887090667186 0.144434294811582 -0.31630446091708264 0.17987921673731422 0.75311980538871 -0.7237549125407026 0.5982799508925751 0.8040847191712837 -0.4084596474128037 -0.07262193406141337 0.17922561877071574 -0.590413506457035 0.35891572980469655 0.7382391096140557 -0.9176500204448863 0.9875442977389275 -0.9955740125286734 0.7490066713932342 -0.4747055311032127
-0.3538892296730307 -0.8047161607593731 0.06564262138469412 0.9514842331951652 0.45506758454521257 0.40943555927071373 0.3255734867637752 0.1798314199076334 -0.6812557803534403 0.7906323042441463 0.11101711672100123 0.7649438332074374 -0.0469290100289641 -0.037389106677710116 -0.3124900594836162 0.5320137949704651 -0.48240991898870167 0.5390254443789835 -0.42689369058419224 -0.9045527024602222 -0.007613275227605465 0.547535416724209 -0.01706356789076513 0.5345163308220513 -0.9173117948134881 -0.8599547012859536 -0.8120828041762544 -0.021275798384487343 0.9112865177938032 0.13128227074421628 0.652400233147042 0.9788535563432235 0.2245463265191967 -0.39976435974156677 -0.7360708785862218 0.35822498182980067 -0.8886391243877532 -0.44528398724233376 0.9879167733927923 0.6042675393441246 0.02070558356727137 -0.36259004009254747 -0.6444025364174242 0.8838854259769986 -0.8251544581709174 0.1532829307882584 0.8826561193992097 0.3678797648381804 -0.7648972822431466 0.6182179927377067 0.336325689635776 0.003273111646094451 0.4555220509036737 -0.11684737006955626 -0.08412219780243824 0.43373747559662235 0.8366085137229273 0.42989617067065633 -0.21781664179789706 -0.48188244760366916 0.022569758993573386 -0.2714371311936985 0.7428043590928117 -0.02063896238291929
-0.49297805933947547 -0.4839569230423111 -0.1488988267568867 -0.18704502369746967 -0.4777027794682578 -0.31221784066033686 -0.4652549629508329 0.4616541350226886 -0.7444796766072375 -0.10075340587285897 0.10760123096635543 0.948057745105777 -0.37885342473038564 -0.5322333636598309 0.57279336466505 -0.9813731320096732 -0.4298401829244938 -0.6450366603280937 0.0023409796666398197 0.7714580372058257 -0.6874196557698786 -0.6037830610987442 -0.32741018410317313 0.22849084738047876 -0.4874729582839603 -0.3630551515989744 0.42490406177093454 0.006602448656427562 0.018443536577654962 -0.9184134401635813 -0.12197537985057383 0.6184302342230603 0.18948387054345917 -0.26344419103543437 0.16499742857463917 -0.10155704864256632 -0.4908512561108944 0.9941481142104263 -0.6740440737546072 0.7273277303175805 0.3387174315194903 -0.16910554644400477 -0.40912911456269874 0.2849302756044594 -0.8287806722653233 -0.008627413175109178 0.6280094346112621 -0.776601263754614 -0.959480364193503 0.6581558362702375 -0.9439458731609429 0.38330166158018875 0.23075158805604112 0.9449599593811377 -0.14604275489577723 0.2132349944915759 -0.5143501620779034 -0.10451769703864433 0.7643142870416335 -0.6355572437511641 -0.26460123133212754 0.2263695359075102 0.20585040792544906 -0.8249473181104332
-0.6235672480419181 0.8803686123139898 0.9618948647801404 -0.797639138520132 0.10117970448150926 -0.2963689233779869 0.918713391506544 -0.7020046548763255 -0.8950577640762925 -0.060142541901800906 -0.2947376320013726 0.8996402378274484 -0.2722813040544374 -0.5528134813407775 0.1915321516328392 -0.8850406223197529 0.20741801297261375 -0.8687441498267618 0.9351919592055837 -0.41309554891077904 -0.35349511497624597 -0.7800147485561444 -0.23212599727685368 0.49531061659754494 0.5315964962021877 0.020589267672794787 -0.9911883619313431 0.16905263069918863 0.9531780608906946 0.4201879845446821 0.6115275373741853 0.07682783937070137 0.6551842252997722 -0.5067118170065266 0.7891836593483503 0.4404960528933617 0.4012296179993635 0.11260311910059584 0.46065773397080734 0.0009492702025399868 0.09460893428292838 -0.025328546634801663 -0.9541410167028423 0.7002273649007908 0.9889300185106873 0.16193564317546638 -0.763058192687118 -0.7611886030838335 -0.7615487741108276 0.9474651566506787 0.6796618637451115 -0.9594238739944969 -0.3181513571487766 -0.33333337643702143 0.9936013069762759 0.8905323118007713 -0.5368951764891283 0.8671268174549267 -0.5951090800703396 0.9109397871246792 0.1562605831052144 -0.7456177534505666 -0.8868319989021665 0.5404869097324341
0.0494813323625507 0.12365986284661212 -0.8417416118688472 0.5074100615188271 0.2806914256782158 -0.8866989260487979 0.07406047754464251 0.8240716341552994 0.7225495564112212 -0.6966598573105636 -0.9066950536854368 0.7126074942999947 -0.2316854159615982 -0.9070534760084079 -0.28933441033319807 -0.012263551278703044 -0.14773516661204456 0.5905868883119652 0.05981714229068524 -0.4734654003914842 -0.18069019418106302 -0.8489708494362258 0.9294053830669897 -0.6852688629109607 0.5141699849946126 0.5232561395712365 -0.9768372595011083 0.3930051699285866 0.25565254471941334 -0.44141490810115047 -0.22543429264475323 -0.19436469391062272 0.7386513408477806 -0.9327293914237407 -0.20517493487508043 -0.7820185025281747 -0.7887277754711879 -0.5359612731323451 -0.714590590019498 -0.9772963147166029 -0.5639090262476456 0.6352150812975406 0.36436502249362035 -0.7501310037814137 -0.4118765907325046 -0.6730462242800082 0.5620990414215643 0.16154040773124478 0.9871380079079486 -0.6214821489865288 -0.3874750505960558 -0.4189367077649262 -0.4036793090300719 -0.8414978814496357 -0.2837734560988978 -0.028741131065744607 0.8638035765733048 0.2177347718379805 -0.2734076288997931 -0.3734625055950107 0.19051223712194676 0.4925711695614241 0.43545889358594003 0.2902642502136987
0.4575589414067165 0.1037200328035155 0.3126590503098896 -0.42830270528597825 0.3359764559072935 0.1761776703006106 -0.7247515541107774 -0.4470547321463343 -0.6987683998081964 -0.37451409842823624 -0.2847510447962902 0.687653651025125 -0.7541906573306822 0.2131590050351413 -0.2627792440808687 -0.8284168461751313 -0.09417546810758326 0.5987141897852273 -0.9129883480408305 -0.3734186436071012 -0.7184404546094358 -0.6134438681967829 -0.42313017140992093 -0.26310030048548283 0.35367599818966866 0.46612247918379235 -0.6303891494519234 0.8226935891965219 0.7815556804227619 -0.7385581166941981 -0.9284838065875229 0.8509091785086917 -0.1824196367704527 -0.23120713358037936 0.13853460849609234 0.7875528738755706 -0.1651100708401625 -0.265059987937887 -0.2722183974394232 -0.5321361134108642 -0.11606011107624048 0.6743701063839231 -0.13595671546631904 -0.6541211653824255 0.5985889910579318 -0.3288067156102672 0.6481763013521493 -0.643479844629961 0.9741310281347373 -0.23751040652775357 -0.6551264530131806 -0.8787680145258596 0.25665150947184046 0.07810129031330093 -0.552908158958294 0.2657276410526064 0.12358649059867388 -0.5333782158157014 -0.055097169248517375 0.17058654077708435 -0.987423514127415 -0.03127246175088638 0.7530224462182487 -0.588365060675065
0.23030844320551003 0.7598664812269753 -0.24941829810340077 0.48942843748457365 -0.16326087933127353 0.4778217896822674 -0.5261474772799635 0.9091734704549623 -0.5492942039266777 0.8321916382325707 0.7136200093491896 0.6585462560696052 -0.1336835494498223 -0.13236663140077587 0.021386487318923786 -0.4778598373363321 -0.4271685974974364 -0.6859123098915132 0.6330746178073734 0.42995100697693656 -0.565232076704093 0.39536145771409625 0.33649948360942217 0.6385437246630565 -0.06655616703380485 -0.6456087432699547 0.28936582463716554 -0.7922355106233017 0.7782582863287484 0.1701830743218058 -0.5697923156608034 0.7238356002220439 0.8906762255680882 0.305248368599788 -0.47776772891571295 0.2850188739605839 0.9757825066458357 -0.6548062185555477 -0.9269924521034469 -0.08815567736451313 0.8455629579305677 -0.12551349160926706 0.8313614730730303 -0.07497484662717202 -0.5210590072867147 0.07604907939293071 -0.4178211103585463 -0.6421905745503778 0.6117542004171168 0.9183127856977513 0.9251673852950171 -0.8274292167175306 -0.8057399890285202 -0.8088273731389164 0.6044754362751064 -0.9859976827414405 0.3515741809984867 0.9566839148469266 -0.30195664731636085 -0.1319059377495262 -0.7947950084496105 -0.29740530248100105 -0.6406298276938518 0.38469414550032277
0.4975390311698531 -0.8365378445392566 -0.9295733587313735 0.019593674991985166 -0.3886199301409965 -0.045577143802367326 0.867035501401453 0.5875617936024093 0.9895627143554362 -0.4721976363072655 0.14325785229630816 0.11122060646185372 0.11027811075416882 0.9990744130272546 -0.1909535158256752 0.040446753972284144 -0.01822129627930158 0.8509263582969173 -0.3456385131963302 0.9843292866598461 -0.3942106433149972 -0.6503213601260838 0.5191388189094517 0.4712215631584058 -0.8104423346657501 0.8628116475990335 0.4871419154707306 0.18045233119740023 -0.3420733120748334 -0.631486829664895 0.03321028890422051 -0.3918584288427094 -0.42051296186727805 -0.9555877527035541 0.3966478739374686 -0.25436640711139424 -0.8360867802938303 0.9076603382492123 0.8102153468884585 0.6581875281311478 0.834305829021031 -0.3880474882870142 -0.9122768722775514 0.6527032493193592 0.7142638642749404 0.8787293510903271 -0.7202390837885431 -0.7688574435480053 0.6212591207222145 0.5547048802333783 -0.6479384810964604 -0.14597330241195583 -0.48379585394613356 -0.29330362447926905 0.22590729481811866 0.384461442195827 -0.35337786762273815 0.11783151917322687 0.10662695170123526 -0.2903858623580764 0.07011081987228751 0.46328480164904295 -0.5378836841260912 0.4545145575619749
-0.45269757286463563 -0.4990880911681932 -0.5031305211250574 -0.3332253311202238 -0.5623706178296031 -0.6379843650394097 -0.36910337622807154 -0.9661433140692868 0.5358188424300117 -0.28249723168997454 -0.5101201898915315 0.9809731769588959 -0.8133425963447432 0.8831540402022791 0.6803581947704227 -0.061901401918510235 -0.013096904184402014 0.3348134405179013 0.1397896072403555 0.27193583266310695 0.475326511436277 0.6032005907869342 -0.03299312357654283 0.452853987774106 0.8786131732263764 0.3623802038958266 -0.275191385914195 0.9291144321357354 -0.4902339521893164 0.020237011829057128 0.5385783070625518 -0.2566211667981799 0.0028278339934537655 0.28369849357534394 0.39835303648649223 0.36664689825599006 0.0889371120964162 0.5679636979468101 -0.9442191597702536 0.11214740508588683 -0.568793474234115 -0.29936211164787596 -0.3886091965183107 0.3199361627824955 -0.09846213536585435 0.0021331346561537234 0.2606775521523885 0.12884758186319623 0.8951762474769667 0.7474473739556284 0.3954953188590229 -0.612931014945892 0.8478564314751209 -0.4106945545274048 0.8970331782848879 0.07489356497951305 -0.9441792432822411 0.188661394412037 -0.6704617230517831 0.4102650689968599 0.14422735240045137 -0.4174796122956581 -0.8906537680365036 -0.10099015142514967
-0.04676554602845795 -0.845251395861013 0.24490774462249765 0.22250996261583644 0.20803142723960266 0.2879159863378633 -0.32866230647857364 0.7099446368966595 -0.7613009825218469 0.5763482375112321 -0.8482690391692866 0.409897320779949 -0.6585378609953227 -0.16097169338232642 0.09755006924848075 -0.3020697633519589 0.22621715142563947 -0.21096760715514518 0.9701914412031551 0.9659385497505277 0.9121352477716129 0.5316384528544715 0.5491951612297827 0.3976808400908063 0.04883445623447735 0.9528436639427023 0.37403516764934674 0.16053624471653216 -0.6413097553131302 0.7512616842766608 -0.2047946211355125 0.4574672501026773 -0.03396539244075725 -0.10937505529553748 -0.6121188149764749 0.05601812758061109 -0.38017727798429957 -0.7302339376840203 0.5938017995746241 0.07832390522370858 -0.8149691211461152 -0.19703433530640502 -0.9008614347351309 -0.061095174799564056 0.5629568328299219 -0.31242555226308544 -0.375197559650581 -0.5121024698223708 -0.861445170481999 0.2656651815350881 0.4868415277522562 -0.5161157610221458 0.10847809490265448 -0.8123623827665802 0.9602763966979453 0.8350290744330544 0.6896509726597588 -0.5760279460648878 0.0708873870733937 0.21531393441300017 0.24076062074598914 0.006450602745074363 -0.7539406800520816 -0.7107501684975674
0.9233192546524378 0.4137927332421585 0.926556551242931 -0.9557485241051782 0.9118024644233031 0.6927185620131484 -0.6309615765220113 0.3474735406286862 0.5994467376576267 0.8642856917249206 -0.6776282302453098 -0.46980818818021786 -0.8805636466115649 -0.7606879738483623 -0.16157679123805213 -0.8723481277831171 0.14209688947218835 -0.10035058185205425 -0.5072590412601523 -0.4180593168604372 0.59574726865562 0.6512747624168576 0.9137259304583063 -0.16165662625660526 0.6238957877959133 0.7783724119005628 -0.2786565105956673 -0.6403033768321575 -0.5456137398220795 -0.22051822026446333 -0.3601335344695744 -0.27337859699560596 -0.5121362662283697 0.3663417938684941 0.44960766932271135 -0.46162699957661624 -0.6516905393895374 -0.5858021533370188 -0.5011493573648329 0.39594269376746727 0.7145920609094969 0.6093419752687872 0.10906850311070748 -0.5278263704784623 -0.5690061308274275 -0.358630201360439 -0.6338286260047825 0.09760702103072583 -0.23464920391270505 -0.20277536623614045 0.6955366277042649 0.411621046212469 -0.8079667828672235 0.9028597144948931 0.7075921664972964 0.8383891171685887 -0.2669869113599632 -0.2623249427196097 0.5795383898100355 0.3414876926406356 -0.49147573002577905 0.7330315035343755 -0.7850742380075408 -0.5066793363773809
0.3740959345002226 -0.42793526090154743 -0.6111538080108869 0.5640607078613997 -0.20072357646785477 0.812650037651887 0.4134845935226239 0.581439178527186 -0.7774939006619834 0.5938140930259779 -0.4891435344230042 0.5303828849388021 -0.5062079256176468 -0.34154592472768774 -0.27235537764529427 -0.7528229283283234 -0.8588410139620459 -0.3732681700168121 0.6716732154015721 -0.16970604673958545 0.5885904376871542 0.17729721390787723 0.8162884219778201 0.1324641605117629 -0.9015733066182217 0.9076266543975136 0.5995951798436447 0.6670602627980453 -0.7540946388103933 0.7475826619522015 -0.087192651219693 0.6072620893243592 0.9955302286145231 -0.15244069182693698 -0.4658895041763895 0.9971791210428753 -0.923907344858278 -0.4234174993930264 0.8119739909312149 -0.5925046440802382 0.41482781431149185 -0.40618000563628964 0.4353239544811247 -0.3547846295542654 -0.28948086746632606 0.9663324949187118 -0.16397770926449073 0.20378896140733405 0.3958900810931547 0.6082102750267664 0.4611991818553005 -0.003213350336998877 0.3889233509903578 0.36002482828034865 -0.9923483990798949 0.343119998519102 0.7062327529356405 -0.934446749987698 0.15695624452171186 -0.829300443445709 -0.38198353283988107 0.38138223525001114 -0.7687604327429811 -0.09642875568548748
-0.6622285278015063 -0.0016479827555748727 0.17396287514229192 -0.8107393722489638 -0.21474992003955728 -0.4749434988109602 -0.5016573315576136 -0.17928586059355434 -0.7411214686526961 -0.6935546002003241 -0.2550920506984271 -0.6085111682779378 0.5328290651357934 0.49954826600927893 0.48786443804532875 0.9636595054149146 0.7844067712580547 0.5871229831337974 -0.2243895467711845 -0.7218968154520975 -0.23135452947637103 0.48683802604271365 0.2563263766688486 -0.29819700919748326 0.03614155478713732 0.06761399795321732 -0.36628626527308006 0.47745454714079183 0.5284220795502481 -0.8373291067898834 0.8687856693318521 0.979620374987219 -0.4441955960734636 0.0022544428949529127 0.1738659220111649 -0.3301310523067147 -0.5465909442948356 0.8904384690513336 -0.6429199406208175 0.29709491810145217 0.7194568773402084 -0.9560642174321454 0.9012663062859236 0.690495120647987 -0.008597644039463725 0.1428702844536609 -0.9571230269334436 0.5369217546887151 -0.2999520713715036 0.909915393342468 -0.6321136622493464 0.1997751847805065 0.2257696967547984 -0.6120820682172334 -0.5002408157827016 0.8746386791994627 0.8685803379180848 0.17799670937629242 0.1017038279732474 -0.27851142774170734 -0.6182501148123192 0.5252213811367945 0.27098355375002514 -0.3123809861828759
0.11029047691969063 0.5320108969787349 -0.7327010690903493 -0.3805267188725525 0.7237708832151935 -0.22995016301445959 -0.13526299631578897 0.9520561431001067 0.03365120018250578 -0.9253170066323322 0.002445435384700767 -0.7402578710619263 -0.43221409707351555 0.6801312717957364 -0.8953169806631012 -0.8506357836023337 0.28921857468257706 -0.9293163014696975 -0.885423083959014 0.05792568945780241 0.8751953225601166 -0.9502025372157921 -0.36667032445185965 0.32171911778343 -0.9412382355880962 -0.8292922228504793 0.7032076791839228 0.10834984918445656 -0.19415420845644626 0.7872937882535962 0.3056091341522875 0.9724836951339273 -0.04328753685413367 0.4569546810249878 0.14086739466428178 -0.586651202313949 0.3545964171417548 0.6080993797778702 0.5958747829914146 -0.8248955574294716 -0.151726495730937 0.7574940027833885 -0.581075165474233 -0.913259455367267 0.3289952445410753 0.46394382912504994 -0.7141227175807006 -0.7454772912366587 -0.5448425635159204 -0.744022448935149 -0.3673295017468541 0.7079647145698211 -0.40180096463196935 0.6929752161886424 0.4698987590811057 -0.7305008831255098 0.3700262022439542 0.3187920436456366 -0.08123330354431024 0.5657001195265021 -0.7802998207353211 0.6514300279464453 -0.6938770178394253 0.5798938123476174
0.6506874343659226 -0.6700549581039117 0.32461761447989224 0.17767205592723623 -0.531248230531391 -0.5286658400056143 -0.31115268879128566 -0.9489235357836572 0.2580195971920245 -0.8271431576240436 -0.0824266903205415 -0.6503634996147083 0.41119594744056 -0.06853793802356467 0.8549284584969923 -0.7540104264229421 0.5900897308049897 -0.3034102529536018 0.0012360507371591556 0.7335238568877605 -0.13174368836591777 -0.8530742059998451 0.621805541758387 -0.9834785055318049 0.28706573448800055 0.02427783876701306 -0.8641575471926428 -0.1053043803023126 0.6179315761001702 -0.49906690673990006 0.24076333785681192 0.9996070042348741 0.9808645183414453 0.7365677643570081 -0.8147381154978941 -0.9109697212862611 -0.04018104120699184 -0.22940159547517314 -0.8787970795692237 -0.3779245941580134 0.8847371762740277 0.883298800993243 -0.6491196779608579 0.7773616165260335 -0.588497316017047 0.7364289446599681 -0.8340378851794632 0.2811939787633937 -0.32778857617023727 -0.5632723763841501 0.46016761990624566 -0.9802725353095358 -0.055600120838799505 0.2294439085991966 -0.2120399142875542 -0.8032303366294273 0.8914960330559136 -0.34860947103695805 0.11753448192360616 0.09634963223247861 0.06536641655326547 -0.36913599040054 0.23306714846617105 -0.9757073707642305
0.38689992921581706 -0.6055294643803251 -0.2845289096267387 -0.9131397418129383 -0.516124516039681 0.5853574812343583 0.22115983730732203 0.6655278641391573 -0.5618652670154447 0.16963255369656283 0.46908358490680513 0.19715376091530645 -0.411150896323496 0.716121854789638 0.6073958941194673 -0.2081289838982212 0.4197459063718454 0.4581170902269682 0.7163054289473771 -0.329380478218523 0.18689448883950455 -0.20414367228455 -0.05755512179360589 0.3509754822674227 0.9393989523132162 -0.25724495126957625 0.6591852446361803 -0.7566513854425918 0.8896109117221713 -0.010548800256166002 0.4830398682453203 0.020304855645090436 0.7523562713006973 -0.25073547232272086 0.08664531366507155 -0.45942819924167067 0.8519307750702696 -0.011688056811621994 -0.4028787143464263 -0.8018733385715064 0.279487566758412 0.011213441397950108 0.3843507872099483 0.19812154164132756 0.09444243825981413 -0.6345159054949949 -0.5195376577833901 -0.3061630981342849 0.16663942012118493 0.19655914304449507 -0.27212754546996565 0.3837634107311996 -0.5749147621383695 -0.1944832262547398 -0.9248105898238481 -0.5888952681760722 0.43417052052954386 -0.9310975651152968 -0.3878712327592362 0.37023451510848915 -0.742703671067245 0.8184074584769048 0.5818708619792476 -0.3608824334335856
-0.9200079089331878 0.30968925836807015 0.19007980033648786 -0.2555921912615915 -0.5626011318231081 0.1763130685886558 0.3683630940842635 0.864019321056581 0.2963670204097444 0.04165007604892201 -0.17584034421774253 -0.09964149600564287 0.1862318043076725 -0.22709654467776952 -0.627604802185145 0.22612907838908725 0.897051704313349 0.881665291806125 0.369638969640415 0.058123235906903936 -0.9606587179100254 0.7187129554701539 -0.8604653700231961 0.9182379463772483 -0.5503821555454944 -0.27123848135826645 0.6873918715949163 -0.9260969559904202 0.33488377284334714 -0.3544925861552761 -0.23779091371137384 0.051382283215011704 0.9823744918512538 0.4052578948040033 0.29674518185009546 -0.09929723586952255 0.3185543387985106 -0.9970980855359795 -0.48947839186303455 0.2933816099096871 0.1565933142279443 -0.6058990045113257 0.28793387960303773 -0.05972106052693782 -0.8807882506999467 0.40252106846431523 -0.7114310197316887 0.35802048618179416 0.27543184202227367 -0.6708635227236976 -0.35494168215504907 0.6399992027761991 -0.4653840476532174 0.03329657822802412 0.304787855710428 0.3408233874344613 0.21790740131040898 -0.0863126249156434 0.9120577900644611 0.43698161517940504 -0.7659634242230933 -0.5616549609875301 -0.03148304239513755 0.463178663003585
0.8769004715176132 0.3061810417165898 0.38748895861915345 0.07376244884187644 -0.3539091824259537 0.03321566072148152 0.030831537120401986 0.3334860684787795 0.5192428957887836 0.427961307809136 0.8290768172441467 -0.4075458975309578 -0.24778353470543868 -0.10465058701994678 0.06996509426285424 0.19128864363317488 0.10106860299923537 -0.2457289326559704 0.8546570009717758 -0.43149549660390796 0.04681264710119848 0.11130360426052466 -0.14782888558716722 -0.7604083976225566 -0.5119591672027461 0.9342528607686698 -0.02599853034852062 -0.33465468814301325 0.7069143098093731 0.9557760982335495 0.43235899395019217 0.8191413800233325 0.1740625727331655 0.5066815925423065 0.9098822140454201 -0.01664247533704155 -0.0711544392381851 0.37969803919988254 -0.19876698387487424 -0.6714253511520865 -0.5004064405618851 0.15013513627336383 0.9546125492014685 -0.7342473988976641 -0.00861130991685699 0.17093051482654675 0.204625098823348 0.5081502456812992 -0.17830303093056354 -0.5244523260504308 0.36598257848680493 0.11521967696461721 0.2523231242905688 0.6505604963657616 -0.22686278194743292 0.9354110582515838 -0.7001354486223883 -0.8923808031683464 -0.2959971803604593 -0.8032990744511099 -0.16061664456345648 -0.8346962099336817 0.6144853583253886 -0.9437109224801055
-0.3800802330380493 -0.40055599983314205 -0.771344836545921 -0.5355037474352138 -0.7072802715839586 0.3631113441571483 0.8454813570121291 -0.4749117421694853 0.932511766353294 0.133347810088136 -0.7400696054278559 0.12447435357655312 0.13875997318803557 -0.18540975614930777 0.3387546494331375 -0.3554032511992504 0.8040325264153403 -0.28641028393252554 0.307125785543364 -0.22714655429313013 -0.5102159700264712 0.8673291372953269 -0.13328418535510966 0.18309992137544917 0.2212220787326964 -0.9894357965337042 0.3140841085243278 -0.44331283988841474 -0.8760714203418156 -0.032386233440161005 0.7939815020289878 0.7016344892065243 0.005898394479883162 -0.8330109530046828 -0.27756195766439373 0.15812288403984942 0.7344864281451793 -0.4512807994708625 -0.4006588905129662 0.25051399068486435 -0.858465320001069 0.6178026769142084 -0.5117382486955604 -0.3926289156617411 -0.32540908250985323 0.9525753716203904 0.6224878467034682 0.8586544704359274 0.15782433261960316 0.6021620087006496 0.6354499404454752 0.7413181961446325 -0.5246201753535811 -0.3432056339994132 -0.9876020005944761 -0.43016311001292995 0.8614000763636984 -0.8766822530582219 0.5729184184168938 0.10789485966613444 0.4690919501227091 -0.14782897052157473 0.025971244978716168 0.9387555442816637
0.2738546450906223 -0.13866649446410761 -0.07611638201356619 0.6569092558662157 0.45133725514036294 -0.7755568235213501 0.5864522406373021 -0.15492475693957686 -0.9018106520618623 -0.1952447687575225 0.2619275498386813 -0.18119283095406402 0.037817167412850905 -0.46648386828479005 -0.4659745437017069 -0.8476616545167024 0.21732198956445736 -0.5821210399791157 0.3281900632031556 -0.6057425623925776 0.044270635172851236 0.6898460675085527 0.970795307140087 0.7319521099733988 0.8690240568089442 -0.5837357017447131 -0.23230679624474626 0.08019409029589042 -0.18262120532818304 -0.5530527008805055 0.7281134749586564 0.6031771148523704 -0.22647171894130014 -0.917680275903294 0.39713613122406266 -0.6301110646509263 0.8717760243626391 0.8499529687108109 0.8955962428884605 0.08029231468958775 -0.13024927910382944 -0.43711675865708877 -0.9085985343840768 0.7381152995064919 0.04770076116881761 0.028336849481453763 0.7380623211013764 0.028440023992772012 0.38958504114483183 0.2047513569910755 -0.7282430726871081 0.6014614585622455 0.35073084284757194 -0.44460680272183906 -0.43844840125161566 -0.5479791932807274 0.7642116704833004 -0.5739122134007544 -0.2254286457020176 0.8565145351150649 0.8777419507713611 -0.8570094050493433 0.6121497240583058 0.9191259844833837
-0.6497796719589184 0.809766366659527 0.5667772709537828 -0.07390285464734703 0.022288025272814593 0.16127281949861616 0.007597846023079002 -0.7693720368383186 -0.45961306283063585 -0.29485556613593156 -0.21509240242881034 0.3138412294948596 0.8346038858693166 0.20904774759723388 0.3435627437417481 -0.08643146128074841 0.03297737132924827 -0.3715322345462708 0.09338713989959002 -0.8575525880071011 -0.772758934018372 -0.4949539845408444 0.4991667701002702 0.9043900641117375 0.002005901937455201 0.8571007032064195 0.4203598351270774 0.3926574549624817 -0.8196655375336885 0.4045178677610355 0.7893382828039892 0.201617552060241 -0.63943090667511 -0.9055451912144437 0.03741049883620717 -0.9905896797662472 0.6663770971863139 -0.5648646100722889 0.8137537258251941 -0.7856717151380173 0.6180093682592924 -0.4407295341770161 -0.08161358518295958 -0.2334859532536211 0.5471500198406425 0.7020364988372609 0.7454740874395465 0.5831225738436379 -0.6175129666738428 0.4255268332505795 -0.8162436105502404 0.2793698465244969 0.5242895660678302 0.6409666915476788 -0.7394334968809839 0.2812328137221276 -0.6207488090807585 0.6427071874638288 0.08907304109909586 0.0007783299969037483 -0.09297469411647863 -0.6937939885130295 -0.027441951059346437 0.04502795006826199
0.511160995224333 0.44578912101315993 0.8934252878997855 0.17196186516435086 0.854836947823203 -0.982119246622924 -0.1593855428787918 0.7941684115603713 -0.9831208628917207 0.1282817941058858 -0.5707734161477758 -0.022579510847036133 -0.062379724146036875 0.10846089926652036 0.20854942061571569 0.14493696853171012 -0.8545824484062166 0.3099535469631858 -0.16890513769426785 -0.35870027315196085 -0.28624006564557436 -0.24710765058717876 0.6608033977057157 0.4453615829597144 -0.9910152518764404 0.5935804715886877 -0.39039860288488093 0.9419101185952845 0.44777657202363375 0.5698109139479521 -0.2974063067164363 0.30822474435393343 -0.28352142268619174 0.10618692394705653 0.768841950413689 0.44731643853645253 0.09387190619032659 0.14348650894887327 0.08037513606062152 -0.7583347558075204 -0.15469768904706438 -0.9968387206229801 -0.3676130787699965 0.03116157015943921 -0.019744922731235848 0.7048299199117023 -0.5216542792282051 0.6647251490869028 -0.28460562873916917 -0.2176748851857251 -0.4290207555896228 0.39047366715534393 -0.3658460052488981 -0.6065680681335437 0.9312174831852487 -0.11262942580610025 0.8219942702696807 0.9489353156995946 0.8798222351011793 0.363165605142872 0.7873474421260007 -0.678418253246083 0.23060315655206987 -0.9428111146533227
-0.4695514838234254 0.1924630454329641 -0.6410681850065318 -0.1355569507024632 -0.354282461956144 0.20057431535115544 0.15024550914203583 0.8754950246289355 0.8614345032770392 0.4210170812733405 0.6020832233330851 -0.8083619437973277 -0.4926896459089012 0.29548544832236323 -0.5351313788537142 0.04295786876510066 -0.017250727363810947 0.8834897786162759 0.5338270041301925 -0.7914509670155379 0.4218551779973685 -0.7070270157300342 -0.23391147482879915 -0.24572891099377836 -0.19056915744134018 -0.596323114942775 0.01018738991932766 -0.40079787908679876 0.5986912349762439 0.5264848860937352 0.62970346317083 -0.9953750515893829 0.898072023384916 0.2719703107079887 -0.6608121812840804 0.7275056427974291 0.799854152136064 0.4443952190217637 0.2235821979872683 -0.902429071097266 -0.24115778283879874 0.11288854141741056 0.48272449854964883 0.4933177683119556 -0.028459910971049274 -0.3207460070639616 -0.9127412217193609 -0.6669165464944382 0.9960661575708767 -0.8640665538941126 -0.15288819719219626 0.6883479777170953 0.4410660887110347 -0.3831637769088714 -0.00903354911455656 0.20985713819465412 -0.9100080919764968 0.12761160183232678 -0.4668351169579903 -0.2697273926342214 0.7953078815004635 0.09245721047493793 -0.057261694065276814 -0.7061126485404863
0.27777825986354276 -0.7639772217295291 -0.21080517411034583 -0.2356573574418872 0.48247412328508976 -0.8283213541164862 0.9778135714565588 0.026778661169977624 -0.7567120982741655 0.9851096261957686 0.027956653367489093 0.247188721883562 -0.4064695393879645 0.07249340836663487 0.14437470422731158 -0.14692326992571925 -0.3548296888934679 -0.09824199489379803 0.20159444272076787 0.7204107884330309 0.851306181930972 -0.23902646275005424 -0.7164644606345372 -0.8202270629311612 -0.8435245606797477 -0.3911625099077156 0.41703787188920893 0.38894063431448433 0.4945550263820351 -0.4521541519474519 0.27156093915936097 -0.5097943073288398 -0.23263001475830558 -0.6820566129440295 0.18288691694374304 0.4392257179445387 -0.4329291680537013 0.19694736765980303 -0.6066167304184595 0.8173088446354988 -0.606623774206297 0.9400844577635332 0.24923578233246313 -0.9752606531902581 0.23553692142142135 0.39871916154319287 0.7191323086307568 0.43569895852950724 -0.6789241614635122 0.4224858235136506 0.9684913829539967 0.4289259926971474 -0.07798588238473103 -0.29999574306645416 0.917592206179535 -0.8379968372206412 0.696058879929963 0.9112211938387116 0.20161330621846996 -0.1707504608675141 -0.8815054476133746 -0.9089525246803616 -0.6760083926211382 -0.4325351343747048
-0.5817805860363092 0.22056256325223433 0.05857243627717468 -0.3385350689695783 -0.8725706102126345 -0.4143711809307067 0.9167531929597554 0.6016845141263141 -0.049667744080339915 -0.6183652039308365 0.3562436654314629 -0.7148260520377017 0.37580624436349885 -0.9960728489078359 0.12091951231090858 0.34094990643705003 -0.6303615433578302 -0.3785046671100034 -0.15233651693683248 -0.3387798740549606 -0.26306331922604187 -0.8290355194659569 -0.8772945564646966 -0.8541075901490329 -0.8854397047611551 0.5586833291686737 0.3772601913705187 -0.3293819317950384 0.6808605465541926 -0.18031959588378554 0.2522894437726597 -0.5474956190931486 -0.17207615959662648 -0.9156886932128472 -0.04494252333918736 0.22002796536024127 -0.12140957781425521 -0.8781872801620807 0.4497449695003217 0.2765868949126886 -0.20768525040784125 -0.9452415524059614 -0.06888886239235781 0.11296947922509282 -0.8637773320585354 0.5725955695042377 -0.9775083133124689 0.9291752379437437 0.343597529263608 0.41242309935632493 0.8242136991499831 0.7737513118495389 0.33064757754184204 -0.16774230684761116 -0.6639934053678993 0.6587516402507292 -0.24044379278238281 -0.04638033782516482 0.7150749362196533 -0.5907782884775301 0.9270560635546126 0.9877396100131959 -0.19454530747901866 -0.581326722664449
0.30315369690388505 0.18320580200872172 -0.06978972731632838 0.6445360455039097 0.31204137454986447 -0.46523708790321994 -0.09858311767242012 -0.3455345364532334 0.48048037533169885 -0.4067444529004398 0.20435515878310473 0.8363068008448273 0.9315862783894153 0.4104677397698173 0.4323307492842938 0.6163110047140092 0.9781933570407995 -0.8220921737400102 0.4942006346247012 0.48956925855652345 -0.8052916033042625 0.9530325723234572 0.1637818803342781 -0.35946839286073495 0.8826773280182763 0.7971869351605942 -0.5057735996802315 0.24676389120363051 0.4565332849237118 -0.13676123333174295 -0.09537586623739691 0.10324375110270378 0.20150967971689338 -0.7703038455620026 -0.9655698664135357 0.8902380057177635 -0.987072080293685 0.9252444328315748 -0.2371123374204427 0.23854257262300838 -0.1813383946304381 -0.1464503214000914 -0.2048734127776881 0.9546402728552144 -0.42446951774550024 -0.26103192169921985 -0.14443235442229496 -0.1527840596098733 -0.5944767366005455 0.8310877739323617 0.3004790313622845 0.7599404348771035 -0.8626845912677699 0.7539221824596041 -0.9535233550308515 0.9488387988996441 0.8414507890341103 -0.9292833386862944 0.16377238911734904 -0.2801830954608133 -0.5824121223355259 -0.7268045744427374 0.37456991427621755 0.23436782372805642
0.6529120350936126 -0.5702757572523973 0.5766075597352593 0.5842470130328339 -0.20276228894587667 0.7919687676400591 -0.3846914876330545 0.23551298392004738 -0.2406828504862506 -0.2341391213323829 0.35046169194994414 -0.16273515682656226 0.44317128104187087 -0.9812205018668658 0.305561766094528 0.14728014958366265 -0.42101902540185376 -0.5692988259038976 0.06927003851660651 -0.27901532164057863 -0.12615121031513765 0.4541151504936929 0.36736815373524734 0.8689504258453935 0.19446308627529896 0.7985161795582807 0.761689826051335 -0.6645791316878173 0.9570203664084405 0.8384618737436436 0.1365678445123275 -0.6134540369165582 -0.788673248953752 -0.5203956761600714 0.8252527126351343 -0.8998387007289548 -0.2942993532642899 -0.3478521379899875 -0.663402005983901 -0.6756182391630929 -0.473154487211755 -0.6445434424462255 0.9638954645526325 0.17572198384318738 -0.8401695375763658 -0.5010552931038275 0.8877398389373454 -0.9205980508313303 0.9783796012940102 0.29030096663314287 -0.7157330158641828 -0.6116655496971717 -0.9910937892756198 -0.39910968009458103 -0.6915607553337733 0.0001213403869491092 -0.6284608687450546 0.3731093073849183 0.3220158397532229 0.28905110222432673 0.08294639994703679 -0.03356289061880813 0.5739919260772919 0.3233317326133849
0.7495526733208495 0.1491408608239173 -0.8681430787058402 0.36540948624212977 -0.121656645922257 -0.711157263981103 -0.4735319267150717 -0.23866826530685992 0.4069133468682109 -0.24767416933229547 -0.9775274163832475 -0.1065853319547978 -0.7586930340951519 -0.32908855161398143 0.11758075580804839 -0.5713269988804552 0.5472872053730073 -0.36023722041661044 0.45636910414031684 0.24430816365170926 -0.9760800217586509 0.6986833449547607 -0.016264879322366088 0.8005859526862125 -0.40840603504769835 0.5894264620626375 0.8433499380697398 0.5553286804804995 0.8582135318860853 0.1084417575607961 -0.8340806316001361 -0.927825449336457 -0.1227085476785088 0.6580232446748007 -0.44872888420097423 0.5978735485693671 -0.16119678784670355 0.5568120304977966 0.49225482085769356 0.31225640011416855 -0.1359747788641732 -0.7492463662801658 0.7996807869713582 -0.6465896541755696 0.7021704367316879 -0.4655728888700945 -0.8612953716737795 -0.7317614032175839 -0.8998928556237675 0.40236561004443194 0.46535580178364055 -0.19661027568378686 -0.9881319078708526 0.14480465375077833 -0.064183423355898 -0.05923294454928518 0.8839325928170176 -0.8683464701480796 0.07496229983650715 0.5743301887035586 0.9140435832968905 -0.45331075179436287 0.853536889888429 -0.8056523310449444
-0.3549513690567361 -0.8295437551006513 0.8209968582173177 -0.06874311358848906 -0.44396707367226673 0.9456333496416316 0.07175456465443841 0.5554073478543462 -0.9232630465543128 -0.21333362090331676 0.9053879783182641 0.4063268574895824 -0.6551370347369934 -0.5736337385953074 -0.5749600588183705 0.1968112770799506 -0.45414420319077564 0.016771468767430076 -0.43275112581336095 0.19972836450474918 0.04016119176378141 -0.008013185915440424 0.21234104677864307 0.9703157954360624 0.278031339434738 -0.8190228068575673 0.3110876969464995 -0.7605553110365286 0.6916109462643467 0.054510849435611686 -0.7103072860179782 -0.10994613186483537 -0.7918922768781922 0.26627572812250144 0.3866984303313519 0.8555287376210101 -0.041554538649821504 0.7294924573806136 -0.998570470871601 0.663383147455286 -0.6521624161762338 -0.6318776046631682 -0.45473210305450906 0.8012449368078125 -0.5423293987250359 0.16395146980813657 0.32865912148747833 0.6790488565242754 -0.3418332403605866 0.1021325845790022 -0.9474705651176083 -0.9864098660808605 -0.7173587958510454 -0.40813727552857415 -0.2310398520459609 -0.9944861542417043 -0.21974168379772197 -0.9538549987137392 0.47041806880885906 -0.08011970334773921 0.10517070240273729 0.994210354827838 0.20575127396507598 -0.01655414314129411
0.11039605648383821 -0.9041137714373935 -0.3235711180988503 -0.9718367400216743 0.42755731224239013 -0.9040624911429553 0.5056208477226936 0.9953663619347406 -0.47794196151325163 0.6954666602435338 0.4876699242477891 -0.36487254660496315 0.43017108729106046 0.027785543506610333 0.17016974218953207 -0.5846551420740431 -0.20103091883372137 -0.9461067141324815 0.37578156479594305 -0.9302914258158546 0.5580002187116113 0.6236933506717974 0.5790829465504983 -0.8698055907533802 -0.8599603993565001 0.5703662642647307 0.66016960651748 -0.22357662156586677 -0.43133170952630806 0.9188165635232801 0.15717841725271464 -0.6014197596233877 0.43990236773437896 0.9795847767300818 0.8851283581927913 0.4443122329478597 -0.7579448560192181 0.10374959899496461 0.04109782236513437 -0.12334860072757192 0.6142422408156176 -0.16713213828761164 0.8220987481421962 0.817156844206955 -0.8143810966515199 0.9814251087654959 0.998694049101907 0.8516390030430399 0.2443760677704232 -0.5105263630190064 0.7522222110457077 0.49873283133949475 0.9711957983523061 0.5711257389303774 -0.9414984179401065 -0.37064353423411234 -0.6460341893992156 -0.47612108392490304 0.4944662505175421 -0.7698042986903673 -0.895433003827159 -0.561644806878878 -0.11114836969269515 0.22705311491414593
-0.27583531072970624 0.7367635993090906 -0.7869443764268786 0.5911627553382637 0.429331150292491 0.39274715839510455 0.18971698298423778 0.1380735829491464 0.39276573395810255 -0.18705310556570054 0.5432235960564051 -0.4367177227423835 0.32466851929043683 0.18909316144071275 0.37856883165667066 -0.08661371124309447 -0.16149195054249366 -0.0698322437144745 -0.6986504429406546 0.2638545378129986 0.5638114766799036 0.875600719437384 0.8340332670192505 0.4440478969741035 0.4855204253455201 0.8579939909833687 -0.4176171815562013 -0.6824569534992231 0.34306550450735096 -0.9726150459774718 -0.4282930735963604 -0.5399300153490063 -0.6874690268895618 -0.006213415255785337 -0.6292475198085679 0.0673044253431705 0.33912690596913664 0.6832064796917192 -0.8492262401206359 -0.38082030360233166 0.777952280626615 0.298119463112432 -0.6897914991159142 0.9792783128244096 0.01918492864439747 0.856609592032523 0.7288895766772578 0.5212231698769016 0.9070661149889923 -0.684006738402809 -0.8549750573862218 -0.4668150668128359 -0.9047840799590807 0.36583307555941635 0.8267567248670578 0.8719763256453736 -0.4407896003483156 -0.7468671015041839 0.24681467669916857 -0.8489645674554434 -0.27168561645879663 0.17312703752802894 -0.9136215803318071 -0.7881757093477997
0.65625918747013 0.03259960076896773 -0.6557386055856844 -0.7137145542272707 -0.7078239191434803 0.22779785193093627 -0.8899380920593911 -0.32303794548204245 0.2450669063124058 0.7948072183727624 0.4290604762671777 -0.45616623008526025 0.9662081595007128 -0.31680451487177974 0.3883225683413154 -0.28089210622341554 0.5826880364671845 0.3857248545345291 -0.37471007797617895 0.44690239964053213 -0.4852844661145703 0.12609673325187942 0.5458202704341268 -0.509374753580111 -0.27577316671825325 0.005041866432993425 0.09025283758872327 -0.018511289629197014 -0.5155524175016695 0.29746274993255994 -0.8439050599627924 0.11473709105619667 0.03462415624620685 -0.9493115188403378 0.19683419168685767 -0.4727302914719964 0.386798223625592 0.8845971141090216 0.2922993183745186 0.19184582717759557 0.5235285351622412 0.7816729347159836 -0.7660627159640667 -0.4701082961536116 -0.3657523802396523 -0.5453665081475192 -0.016101931492527255 -0.3403000629161992 -0.7073187097603606 0.31271658029693894 -0.6462359062516052 -0.4353435225692617 -0.9920891278302275 0.40657526123333243 0.5823561107003425 -0.9156213148559909 0.508719976472819 0.29269943590209624 -0.684774171701297 -0.7297178851561781 0.3126138419337119 0.9047115464499644 0.5193746940822503 -0.014672426158159224
-0.5671053331023292 -0.5038849036563278 0.7313792150411085 -0.23698354081786666 -0.8461926723141502 0.49975032358473515 -0.6351791300378686 -0.07614517669464704 -0.6417667026662339 0.44595422522050354 -0.9290115503676648 -0.8892959365907278 -0.4870130359509526 -0.9646498838671231 -0.39376136171307063 -0.13151563541250066 0.771941743911396 -0.8973607345591588 -0.5024303201511113 -0.45385320391402284 -0.2616892042451877 -0.6512277394516996 0.7996572047661192 0.8755898285697039 -0.5210882486395088 -0.5240872928738975 -0.4712470875631678 0.16626634688997033 0.6859223318824643 -0.37267909480577033 -0.8716228300286095 0.642416076272234 -0.3129679953466369 0.5883059448408425 0.899036056488419 0.6830020389839564 0.14706567496646583 0.11983376695807357 0.6058144009426676 -0.13963327904369316 -0.6205566300041381 0.8092141904530261 0.6243749146051123 0.7262196492261175 -0.8244769751454775 0.25528327270893225 0.44741567198356846 -0.415863845123166 0.027558260075836838 -0.9446441392931169 0.3720963232278873 0.5873726809344177 0.07868679470381323 0.7243843134153569 0.36539533638814836 0.41054005043585806 -0.6686977079909797 -0.2959175308857376 0.9890104664804786 0.45407426177215515 0.6579216892790827 0.07962047591129418 -0.7536940675862629 -0.46003976569456606
-0.4411761025452934 0.4324447477332576 0.6169850801682719 0.29494742671040375 -0.08166402494878633 -0.1306703596304135 0.19886817696047032 0.7144653299109391 0.028310771354104203 0.2625111185483744 0.44310935433252197 0.2431958116410906 -0.112029521312633 -0.7586115854792415 -0.051417607395418674 0.7749750377731242 -0.4932948202677292 0.14071782206565908 0.6387070873729173 -0.21978805311298477 -0.861565208166615 -0.8361365248799095 -0.04184305445728742 0.23846327382638166 -0.06969479736227013 0.5104442697779266 0.9998187861131076 -0.011505120403370928 0.8656620966926007 -0.5163271539122127 0.7190944405837465 0.11803018619450745 0.42836569983870265 -0.23740280769069044 -0.8866669404468734 0.6875138048059759 0.2455365250662409 0.9764010631475204 -0.6077372451307603 0.43242657853021016 0.4098558552932594 0.11366799444895959 0.5309021031258288 0.7281201918956834 0.8732149854377755 0.2988031605556176 -0.7047463333357322 -0.6516395487231976 -0.24218712312123314 -0.8263061320037723 -0.41638331900157044 -0.2707360662748044 -0.9192775645333402 0.15671411450876693 -0.6340192108122884 0.6652194437680985 -0.4212083087640812 0.7329341891622061 -0.2626915033637687 -0.5372553348207592 -0.4401946486509358 -0.2838408760337816 -0.38313700124714223 0.3129902444421553
0.3414433024423835 -0.25997967555147894 -0.5122715821796762 -0.6205599182986172 0.3492522806482312 0.9209779681796209 -0.5433596076364635 -0.5123205106974658 -0.14058403271486752 -0.8685594212645116 0.5349900410151602 -0.130528321367962 0.5201835445915703 0.354203812070506 -0.22670162197358756 0.5905135573255778 -0.4827424215450815 0.5069683351279823 0.24124912854535485 -0.7419993569212568 -0.03136204377262586 -0.1151229431496712 0.2973124655598631 -0.7070501698042064 -0.9821353078501576 -0.057185931559050385 0.7330258496455151 -0.09992712899300771 0.9027366720326264 -0.6508135329056499 0.5254532207522831 0.1784229437983733 -0.3614004693254953 -0.1022551350068659 0.3808354815542905 -0.7122018876715681 0.9564402541030217 0.43221850324783695 0.17096169948580653 -0.5832135761157682 0.6157592136390377 0.2503690977144051 -0.8334743490795637 -0.26907313502503594 -0.3730439236037999 0.8525454665207337 0.1586807161312671 0.46766216443871467 0.6983129193555191 0.2272910620877473 -0.8421118141531792 0.9436872549203468 0.011625088850594878 -0.36371084582076874 -0.6788786172457599 0.6029296892695384 0.018875367006707888 -0.7566341666235881 0.8395277419229836 0.7354294331079605 -0.03507196094385168 0.829662129687027 -0.4915788681436277 0.46775284582745535
-0.2218826409266026 -0.140866270989493 0.034498475892443814 0.045228472869373926 -0.46773989339703537 -0.7513956613929067 0.15718413869459646 -0.5278743706170093 0.9384528918548574 0.8144912199540284 -0.6889446476377834 -0.33518519853262796 0.04257910500234341 0.08806341381411831 -0.022410374915981857 -0.42707525675410585 0.3049687619950092 0.06346681186463332 0.6323083433097805 0.6125037874140626 -0.6770032364421148 -0.4391328109718975 -0.06850206846600648 0.4691437056039067 0.0783154378385269 0.4557963419109359 -0.20671066509110125 0.4148806664534559 -0.661743448323084 -0.37306095164657505 -0.09462101358381036 -0.4327075286625848 -0.15992187744967468 -0.8687853269579247 0.21702454239585123 0.24887212623395905 -0.5453863343974266 -0.9381251058158611 0.3924430856569696 -0.15908536772045867 0.8057866210102436 0.46148067035698803 -0.9702397223376744 0.012544656326539894 -0.1814533106495526 0.9137623135649902 0.36638246549831366 0.91445217611745 0.13463312459992016 0.3750942481423394 -0.676497910978664 0.2062921096375423 -0.9252588354685451 0.13685368375004914 0.7486272265348661 0.05485577959669685 0.7388935806029031 -0.16346070835316384 0.08056789890268701 0.1303164287480647 -0.5466634856885704 -0.2800664707407341 -0.5747288627312326 0.5787600667640973
0.10958034059454391 -0.42234515871711054 -0.04296037441936651 -0.017818369923661814 -0.17133584069996055 0.23692260462198234 0.5545472941433309 0.5447951083556701 -0.3252807764979062 -0.3309262517057874 -0.3355964233502675 0.8799684240548575 -0.06825899089260612 -0.7045835857629348 0.14822470565197365 0.26657108884017355 0.9138094100669227 0.2500407234853059 0.9935017677306099 -0.3227705002803549 -0.1872549439459068 -0.3208745709099219 -0.7049433099734197 0.37494812727804416 0.0036784792184398896 0.3752876078394425 -0.09037027784261187 0.7607186346774786 -0.08904706385349237 0.6183919945453316 0.9440840502196597 0.2147881843342463 -0.9361542435186896 0.4931626856248841 -0.49214928727203455 -0.4627856814590605 0.15621618051549158 -0.23358906149001535 0.14555769483879466 -0.9523333707949142 -0.2784445590075977 0.9041571269512745 -0.39821286678366796 -0.767252613576227 0.24383247755973536 -0.2901827680452356 -0.052024513620013035 0.7244479898743417 -0.34010868433126196 -0.663786858959504 0.5799182507398033 -0.9889678031655689 0.009686323584656709 -0.7943709371364316 -0.49897047498877756 0.06912859776092528 0.9664645649304493 -0.15520733114476992 -0.4123743240177229 -0.06485048324594556 -0.6803939832126309 0.9812693732244109 0.803779873650879 0.33642283812702267
-0.5813725993349403 -0.8631003549639591 0.07029861799405368 -0.7355977867624228 0.31950063690059216 -0.18819505893018107 0.7134251566465386 -0.34101739143327126 -0.6350910987125251 -0.12101446305730579 -0.33139139440269605 0.2981436051332311 0.408781479583636 -0.9284736274153502 -0.05011326383977899 -0.7370329512187466 0.16456415948197112 -0.1281642617513501 -0.6014319622942295 0.3016466861862308 0.4853594448335694 -0.38343871126969975 0.7877106876303095 0.8183799685362501 0.42839184701338384 0.7192298854287011 0.5913011733898725 0.8078086457247806 -0.3261570163931262 -0.12406583938071147 0.9943381257979067 0.14202273987186387 -0.8388223283833103 -0.7082458863986185 -0.9727484763433774 -0.4441241141784473 0.6998719512318863 -0.5722644768251821 -0.023697205732199356 -0.24521582420965915 0.07496759384070284 -0.4538146879149758 0.7880176866243895 0.6042376033203385 -0.30734528452329 -0.9317605135809153 -0.4217978731630001 -0.8094614185590807 -0.5001436791742191 -0.31327317347715655 -0.5466376851132366 -0.41963961661208926 -0.008314185156982346 0.6176104396975572 0.9006485991382183 0.6044708908018073 -0.10490421927647753 0.17942039016459765 0.7560190348733069 0.5603975181960257 -0.3762210448896983 -0.9924675481869532 -0.7406385202774908 -0.6919716140686323