-0.7910829188869062
-0.18541514459953157
-0.25049803336858134
-0.5896287293906086
0.7570280508094527
0.5635762103621891
-0.1953585823332875
0.44434894935469615
0.31829454098005683
0.0667134330857968
0.8134993921775269
-0.546380947885841
-0.5459045353598879
0.43887273003719574
-0.09645927048032066
0.9602268023482543
0.4363796568559202
-0.27715693353752036
-0.020340580100011385
-0.6512387344603909
-0.34004649265298714
-0.6771242155355575
0.5199005564350228
-0.32737936472199425
0.3800439923682275
-0.23313474178252513
-0.68112450815622
0.7837242181059096
-0.6623736057303791
0.9867466968676992
-0.9160686763313741
0.01930953648870104
0.4938397906970602
-0.5737484005052329
-0.3013656986819373
0.14435328263302027
-0.4373899093289251
-0.2576425505088318
0.7573792470623391
0.5700265413920815
0.7667313830234299
-0.16065929674198265
-0.5212617669045423
0.42751631643453036
0.5182680675598446
-0.8735767952927986
-0.7546647445482375
-0.8250627226961049
0.9700655760737997
0.47823740836549633
0.6182078103846202
-0.010451995313452311
-0.5731459553803051
0.39189049848004753
-0.24223614191108966
0.10968621168289583
-0.7278474057353759
-0.8047521881052639
0.17412612074057998
-0.5645833614851663
-0.8218304592232379
0.9728628384827389
0.7352610733223004
-0.8305752496192955