-0.2646530759764618 0.6465580258490422 -0.53494957971716 0.5377974803648777 -0.9828540319017676 0.3175070439229344 0.24570270364230518 -0.5334339699558721 0.02520565592042212 -0.9406946507650928 -0.3112781295998115 0.5995649301271146 0.3001564211851937 -0.8257974850386793 -0.12191695358413557 -0.38009499050752393 0.297217703962384 0.14022730566037866 -0.03206369327858338 0.8366574512407816 0.17411923373241556 -0.7987256484942196 -0.7471035303655416 0.8729563145731942 -0.6339247793331237 0.950057796390517 0.2835479347870429 0.924437603043873 0.766424188927401 -0.5765645453843475 -0.2801081154510434 0.9594297659641353 0.37101620902223265 0.27338732017521594 0.35140536387307786 -0.8386251682491896 -0.3700381151285521 -0.326232007503644 0.3937215437053059 0.921680072203116 0.5962944746269994 0.5809294974352979 0.28073267507388433 -0.2794249419778252 -0.6177670949858682 0.6659720365681174 0.9142069974411331 0.8380191783969004 -0.22698291114773972 0.36231414952937846 0.13228030395185852 0.8234779562056673 -0.9823181639525034 0.9781838730854957 -0.04621970576637402 0.24781602997873353 -0.545906996031303 -0.5062263552276824 0.9609855329968373 0.22336044102021302 -0.19388840780194294 0.018019993064880113 0.23120932115051063 -0.39572006987494057
0.7305161086127958 0.1454228722963713 0.9193390677946667 0.16866038527297822 0.1370470765940428 -0.988501221813517 -0.5973608565047215 0.9731616402228425 -0.11497533082354061 0.8006388442473729 -0.6533591075545413 0.43844739988957215 -0.3168937725398726 0.12520612632572758 -0.9568632047183128 -0.40353839663210733 0.5034025111832041 0.9441805713913654 -0.17085448710276308 0.27033262616548415 -0.0670970930142678 0.8095509057215562 -0.8221692976838237 -0.24406162707488455 -0.3795149558634232 -0.9227503745954435 -0.7083265507808334 0.2842969830184079 0.24843664980013513 0.015322792747067826 0.07565424944468657 0.6559796685167805 0.45990621634208795 0.47693706007780823 -0.2661988316221455 -0.44102204011526536 -0.8344743007957667 0.5823166474572166 -0.7466173087660068 0.06647425427154285 -0.4113896938148429 0.658435058996452 0.7651911703947918 -0.16266084607889564 -0.2885854893697799 0.23073483266809736 -0.9751002124455352 0.2106083681640858 0.10769147785585798 -0.9140036924558246 0.7481245750993384 -0.9336850282405125 0.2633179731622879 0.5783590152067506 -0.3939154376741636 0.7727798247435786 0.5851833811659948 -0.1849065439588098 0.3318933762119869 -0.4440986135347309 0.11510218598409727 0.5066967126830724 0.7001273467693077 0.3002304451311406
0.14691530772190275 0.9885256103585305 0.25556962228433555 -0.2383577624384141 -0.7919245614331851 0.23738166266388516 0.03084260200830924 0.2767057329720859 0.17873000479040657 0.19603816266154106 -0.4382099055959541 -0.14631359037020442 0.31656602442088233 0.29674556574188515 -0.4909106261643488 -0.09707416607303432 0.23484015514889056 -0.7829824892525956 -0.6001880596415832 0.6960399507928658 0.6885885480816465 -0.5479114008682273 -0.23621039159854162 0.03650711370058635 -0.11036007374707424 0.3420027138768711 0.5427493633160552 -0.012815091927469435 -0.10824958911106863 -0.10315422063983393 0.8823862574129813 -0.15164207239691296 0.21320228670676156 0.06540040351405518 -0.9513466531102133 0.6718278242797011 -0.4333326129916282 0.10745491270864016 -0.9394038220659302 0.4594100181908647 0.5318364076549713 -0.9899735405174295 -0.060184726920744946 0.9053162519619533 -0.03753295632525222 -0.6532217730017462 -0.7687402558432761 -0.2908933929525026 0.9049893257667934 -0.5937866230427198 0.8440427154304306 -0.10206230964459939 -0.1282032980001082 0.2154949549573988 0.504597399250599 0.9148286330429558 -0.8745281251885582 -0.4046542275087588 -0.5369478066804336 0.08750644924238449 -0.0018414428546000838 -0.45209149314709784 -0.12904057907383737 0.1858895778766918
-0.7648526814567134 0.7434947256372066 -0.4099896266160601 -0.12356744963234201 0.3862956642812565 -0.7260298159355607 0.8373485597330939 -0.061696290826208866 0.6911844144707182 -0.7086129091518985 -0.4976388302933823 0.18609803314875561 -0.6796140490614706 -0.10274932597356234 0.3491441752858795 0.3400092158108561 0.9355631327804832 0.606889600319561 -0.687457023510488 0.007721831841718707 -0.18222922177150802 0.4121444021117242 0.18515282060098803 0.1335545588320617 -0.08366364559211159 -0.38000738451096794 -0.9311474684990066 -0.11141423552005159 -0.8180154268188906 0.28512493213189916 -0.3913347929792579 -0.23857655448386828 0.9488581098844067 -0.936780447169405 0.888152455482675 0.8818798423632488 -0.042702524164877076 0.3334744754479346 -0.01034544050608388 0.7364300108319277 -0.4360279800873721 -0.9758139099708532 0.843000831603617 0.8315889289995257 0.9007347675083988 -0.4314122260923958 0.7575465852157477 -0.699364330783413 0.36345793195362974 -0.8481995524102905 -0.6374844357696461 -0.23612297670848958 -0.3688010044873118 -0.5886431619652921 0.613462285250947 0.913626733165416 0.45485587921820003 -0.7357059498114642 0.6553177812711739 0.8947941304874307 0.06005770065535465 0.3413639814021585 0.4411756378741045 0.6459137312337067
0.8943662333884372 0.3831364559151895 -0.6045916871873833 -0.3012644242509728 -0.9978916507346112 0.8420357985452915 0.1813228403434859 0.24169187725479824 -0.5878616960369849 -0.06312344603246789 -0.3121743414013973 -0.7446508848494533 -0.7285002019950493 0.9841305084363245 0.2902304745194484 0.4359079311996492 0.0873773815842962 0.9424086250593722 -0.04265194474358602 -0.625825010442026 -0.6694707705419425 0.5003372626758404 -0.49869921685164487 -0.6203435809240139 -0.9750129133302496 -0.23399777148970857 -0.9072964540727284 -0.963818716038324 -0.43455051616918405 -0.49580977101649526 0.7862848543551024 -0.1141229997720421 -0.9970406093948758 -0.6353821647188058 0.4412677234475748 0.810458894577146 0.10575880818613603 0.7516542338695353 0.40642057262379505 -0.8766106821771031 -0.01053411541665894 -0.31203962662305607 0.4089061486489747 0.6543705637032813 0.7189414770310394 -0.6398127248927028 -0.6866102267919449 -0.10276295488410647 0.03578368817950728 0.6475185742557397 0.22759352383117304 -0.1317590995917466 -0.38641969581278834 -0.4525581856648595 0.25383431931758715 0.503067996392691 -0.24589427518914797 0.8275947983973646 0.0030415653909594553 0.47711121498614917 -0.10685779459205946 -0.12376854594961273 0.13566918139161022 0.8399349240762195
0.7403740710106272 0.40899673269455517 -0.8988140021944826 -0.05222977297128262 0.17627094935583276 0.03262865984656482 -0.8678523939424871 -0.34302820006453727 0.22482449463345766 0.7053754280807283 -0.5100914162880139 0.8206912627126619 -0.29475815572941233 0.10858201052300265 0.11845303940963925 0.23038331875920082 -0.5788743166121808 0.912459752833046 -0.6236395548292364 0.3496618095127444 -0.06301641938594438 0.17302398690421317 -0.64232200952638 -0.5768934391061185 -0.32832446629714074 0.728467725901575 0.8327376462921265 -0.03542253141532581 0.3577079285388227 -0.5870210944618974 0.2490298472496666 0.8017034447090379 0.14823159458832635 0.4760789655869162 0.6308827508305166 -0.9557747931468292 -0.960000073482524 0.7260850965337571 -0.4681090895086546 0.2507628291506476 -0.918540372970156 -0.9465930886764249 0.465885129552825 0.9783699298148703 -0.06517337649352895 0.6713062103433074 -0.246870216321458 -0.5547169033979387 -0.821316646409429 -0.3111420343747251 -0.8937051525844675 0.3463894157647971 -0.6249822357622452 0.8312896743046299 -0.6876685529620545 0.022658017175104517 -0.6826474567332996 0.0560026032173222 -0.6679150773143487 0.9417972120854432 0.9726133304812068 0.1961839469977753 0.9073730984090713 -0.2309596390955242
-0.07605458181780222 0.6802015891773943 -0.9581012841297543 0.8552680172446974 -0.007420717033755242 0.4203638466279034 -0.09661530808103858 -0.4196011410645495 0.532234927681027 0.6929399196912114 0.7991193016133753 0.11693655055852648 -0.8460447968498217 -0.45242098990080204 0.7559612162399401 0.7973407369176542 -0.3038729861732461 0.7896765482259325 -0.12724323679660698 -0.27054643209158513 -0.7523460188306557 -0.35477800355049083 0.4424024938602096 -0.8212099216663482 -0.6055324024751831 -0.40701532611207214 -0.8757588697114831 -0.29501601025132085 -0.2073411943897574 0.3925342752257135 0.5456146689274399 -0.8835531191201302 -0.9852143573392051 -0.3503519831343975 0.4935995958968753 -0.2942513967203746 0.0919928221766444 0.9692750143558704 -0.5924434191498626 -0.7848380275349622 -0.28665899734783284 -0.8544646030636112 0.434908215846868 0.7396790779164149 -0.17055794485814912 0.7401153825145341 -0.5322985792777561 -0.603381471099375 0.5608427004222227 -0.632167712429395 -0.7635780403821755 0.3089987695981753 -0.8537677993305897 0.8645692305154478 -0.08547833799620208 -0.7631026996239358 -0.2646247382477793 -0.4761012581052304 -0.12347220907534462 0.5394105315080704 0.6720038354576123 -0.18452983520370392 -0.9371781558097283 -0.8145064425223465
0.6697193224116786 -0.07758543365428561 -0.35389202734358105 0.5595648724206943 0.08752102253693717 -0.7986979310492768 0.35581221185493317 -0.3953722295571662 0.968679132072972 0.5492338151315479 0.7057334767333874 -0.12054414571428351 -0.8091967363255828 -0.39168296912116185 -0.38100660657840724 -0.7446283376996372 0.7181998020411593 0.3664425480287612 -0.6182820201959685 0.9477732284395965 -0.5490543641966235 -0.5761092183255718 -0.9267056076349176 0.6647137621500545 0.5116893566412946 0.34089651198488946 -0.2337405688495997 -0.3168691480244137 -0.6196529817358847 -0.46501509706004995 -0.5279150374122634 -0.6991913762796886 -0.5862133115898558 -0.11833425372689033 -0.5550671874701274 -0.5259944798437601 0.8086488967288918 0.799518497552911 0.9054993935973992 -0.3413913473794321 0.9104068185970489 0.296593347501074 -0.2515585857032514 0.9482791792711602 -0.4939069695627192 0.6771572360574944 -0.05312473102829807 0.4859264368841063 0.008967444765715538 0.5231267974452418 -0.017127993695354116 0.980043828793066 0.7907648854044043 0.5824526999725113 -0.48943834327459723 -0.028111562705357418 -0.031311199452181304 -0.8669045295831341 0.8485954464150691 0.8600216582909574 0.7491742102334997 -0.08651828558168284 0.22561527893957645 0.7252643405727979
0.3324279304334088 -0.17178238411406865 -0.4636871793731532 -0.4376004474250439 0.004731325112698581 -0.3281298283748828 0.05792595505046072 -0.6955485651659377 -0.24366693874377554 -0.8855859851167853 0.9763344521925645 0.6634637974933704 -0.6414232360870156 -0.8783786980477568 -0.09269436396304642 -0.8882239355545276 0.638262912388526 0.8621158558757183 0.11752582155886615 0.5542277087460663 -0.3094808864680918 -0.6154552270309457 0.9245474436083778 0.33714418080652386 -0.046972884032207896 0.02520748017089991 -0.926769649665276 -0.45094306357058733 -0.9973193494421073 -0.06103959823420113 -0.21951633088653622 -0.2954265188097116 -0.14330836604485886 0.36274418379650375 -0.7587085195094172 -0.8666711461715704 0.6451825752932665 0.8143123907374479 0.6759550450833802 -0.8258930101681621 0.5477738173989808 -0.9423383425907479 0.5373360219936185 -0.722424776923519 -0.050908040658163234 -0.4689460362461695 -0.6622330667303384 0.4171020158777783 0.728749835733185 -0.044809693366400616 -0.6489427281718374 0.042564527146363274 0.4473228942018177 -0.4327241596552722 0.23472209468296135 -0.8787078176058791 0.9895892272406124 0.2528823625742862 0.8723557610572752 -0.5787793314569261 -0.948152178060788 0.5516901030335448 -0.7287854172800341 0.7064388048604928
0.7088196022688147 -0.37170085290656973 -0.02856945438011116 0.9667679101225444 -0.5255638219085659 0.14227926258279666 0.2537891533185115 -0.6605816777362166 -0.6419429086763087 -0.7741471645279987 0.6801054010013312 -0.05755453765107621 -0.6505743362397125 -0.9391186223558705 -0.624689798677516 0.15280180532476306 0.920716783059158 -0.15571599477363418 0.42324413764070057 -0.2988261471343454 0.6769049756213674 -0.6030174635301326 0.5330281707867217 0.10012266234356759 0.897107595520112 -0.618710451785526 -0.9657243355944272 -0.17303055737987805 -0.1750491838138588 -0.8176958511253498 0.4283592499429678 -0.7807696381973181 0.9459680256611449 -0.8712908594539654 0.06996487531529083 -0.7878527614473452 0.34023891614003676 0.27737427117469404 -0.8319684786934016 -0.783253326593824 -0.056724214048180954 0.5507406316420569 0.28873924834913645 -0.663107525295439 0.508015257960061 0.5036680059328882 -0.7324549995863168 0.7113206795484315 -0.0005851682337931763 0.710417147164236 0.6445607979761687 0.6701330631796214 0.23584151007214493 -0.9760850097553873 -0.08834959259283304 -0.7489700316383214 -0.857424513473583 0.575605532748642 0.516886494478145 -0.3442809961480833 -0.6738218862803571 0.5374679855314757 0.506992037383516 -0.9813728769289991
-0.21715339475187379 0.8417876693005932 -0.5119213522963757 0.025692349451934104 -0.11299270460037025 0.9770867159283965 -0.16091227785531292 0.16018969574326358 -0.12147916597180841 0.9846940092462138 0.15555388706635198 -0.39794102505110174 0.2111515282488181 -0.015877068398908012 -0.5342089586759438 0.3754308303436895 -0.40983021554756904 -0.393079217060853 -0.44622794174182956 -0.018869934871161398 0.4802124633705578 -0.9103896104071134 0.5648325411240351 -0.5625875940632346 0.4257382859834471 -0.4265340134085889 -0.4358573049527976 -0.8601758564891624 -0.4141879233567627 -0.10435503778077182 -0.2889248264240518 -0.1503107533491017 0.7696518654277777 0.05031765440685354 -0.3978674211980098 0.8951038055574652 0.07888953159049339 0.15039359118501427 -0.6454414603085024 -0.9982564095907149 -0.4608014398918425 -0.058813909647704055 0.269091104126963 -0.11454133207226702 -0.12364999789270525 0.7951120229227808 0.9023039148341065 -0.620587374396238 -0.5492141703300659 0.09593949908988786 0.5842398890813774 -0.21203701526185248 -0.027982495170922883 -0.07282841807567397 0.17942054967310872 -0.7318306091974536 0.9029973122787556 0.4910623067340716 -0.40072217203180993 0.23379769647286341 -0.16583393472411467 0.8340617223882887 -0.7798545405897364 0.6438619744882303
0.1933585360831327 0.8041441960091502 0.32840939684291626 -0.636941104219436 -0.8209545504053841 0.811744561409947 -0.9860886663185817 0.6880272588594118 -0.6667036636024191 -0.08712786174257103 -0.3437534669053679 -0.4589256350248283 0.569484665050304 0.3902698470032637 0.48778922901437105 -0.3373123063689989 -0.14112901961113544 -0.7775601350693992 -0.485249035444697 0.23919473478541065 -0.8223977365757555 0.1762665923421496 0.37258455663392476 -0.1115021176342279 -0.8905468464314621 -0.24022031250082265 0.02582738135412832 0.9921766959612277 -0.7008610359318099 -0.4480128377498158 0.13590960391464924 0.27322002257839695 0.5374340335430403 0.942384563003714 -0.8900968785403227 -0.2882223879429451 0.8294222395227469 0.9007054641682886 0.7619250650070883 0.25253514485184114 -0.2895389369821155 0.7354697045752008 0.14446560605917536 -0.5962524523171113 0.4561221732017755 -0.9201646939972219 -0.753557122437067 -0.8834114980238896 -0.7094709299791306 0.3863175196731021 -0.9722221067099563 0.28980323328207636 0.8747990878332872 0.5765228090063863 -0.6476110996401663 -0.3775700603223542 -0.6094672505834435 0.7403089339405975 0.8330066510166036 -0.22275437912127072 -0.6585729279182577 0.529679605402982 0.06947597016172646 -0.24355710281102305
0.4759884817973594 0.9857644718066341 -0.040549334083525235 0.23469008020480153 -0.03523142151556624 -0.10120258535872484 0.5753944891080847 0.3465996036858432 0.5930887972734316 0.890094567242238 0.13630832626430434 -0.8708594946750468 0.9417169630218662 -0.01753214534996106 -0.5918152885135786 -0.9587765001491046 -0.3702531950909489 0.822816042750848 0.11188867595937757 0.81121419946905 0.45813346757506523 -0.49556456896985757 0.2726666759350218 -0.8382377822331673 -0.16043521878236078 0.24595267227652506 -0.6722933579180066 -0.6920575626108805 0.04134017196679807 -0.8863372612433582 0.26897966959921527 -0.13363568951663574 0.03850289328374723 -0.6478499111879461 -0.3142137951963184 -0.4408498586984724 0.4930098109213925 0.8920298951054031 -0.4445679900853903 0.5607651590843321 0.6068031650807408 0.7513043285521541 0.34650265758747056 0.1657797194312245 0.802573902279063 0.24334718856528426 -0.6620012534249102 -0.44881480376612237 -0.9608521282298594 -0.5199308469175528 0.8713760083901647 -6.997786892926072e-05 0.9068386812219962 0.3584547489271632 -0.5432485589967306 -0.33747030257857236 0.02287930776197089 0.8352375930563152 0.958824852028491 0.806151449966807 -0.040006292382895214 -0.7170776748997887 0.5044192018307314 0.49805291132673246
0.4495537006874013 -0.11707181797383859 -0.07627308933929333 0.9766194039292688 0.5698849835576991 0.7768044488373507 -0.5929821611490187 -0.9996124160179127 -0.30112183804346904 0.9637512156988663 0.3984283794578509 0.21971628995534087 0.3783494094408524 0.6445165456340738 -0.664708311672185 -0.7798752263990905 0.6096576729920207 0.1419504201841555 0.7398842507529306 0.23123488820812566 0.2523705379632095 -0.0396178402944094 0.0031255522491770993 -0.3899179096007672 0.011074678998899357 -0.20083963556976836 -0.6136119863074647 0.7331641877058792 -0.5351152497334546 -0.13931502628816195 0.2528896851368374 -0.21349214604764155 -0.7127317660356549 0.7004832332908604 -0.7052401350345994 -0.4682600945168305 0.5762829108054555 0.45091475870402786 0.06394204410218673 0.050612648190834886 -0.9982596056730275 0.10450328836973632 -0.882453860404721 -0.5439390419753869 -0.82185548473495 -0.6888949427827202 0.11204201478728093 -0.8258280211659137 -0.9376981083838518 0.3950752277980527 -0.013062615040798642 -0.19557547478851256 0.6429923968414506 -0.5760650871875392 -0.40756157158844064 0.28469509289642225 0.7752792166235856 -0.8206721531333283 0.6429530007782143 -0.6167341971805735 0.727366822515769 -0.14903223830054002 0.45742799800198464 -0.3589112032917865
0.014556070015294242 -0.011997840441243302 -0.05407215441403346 0.2023095340476042 0.9427731720474588 -0.5798326556468674 -0.3847923786982066 0.5168574292826584 -0.8052477118883625 -0.9205772654682576 -0.3064324039206898 0.587711593598323 0.4829927875303994 -0.23804390677654985 -0.35527900761231423 -0.05079323105481892 0.42675099466536026 0.5905897558577888 0.7067184147732881 -0.5410859870634288 -0.281537667995827 0.6358027444914474 0.8663129641060907 0.12530686359451515 0.5273567357333455 0.12096446645403502 0.022246554216847736 0.4119920628265148 -0.19445958471528635 -0.5308783898067477 0.9605754089829543 0.567671427837424 0.9138011834580919 0.39929772552291776 0.069449804396152 0.24186185914968794 0.16142521994103642 0.4163111125287273 -0.43812540742858874 -0.48943982543582365 0.12412451641680011 -0.8087235306401139 -0.1992927024185458 -0.18463932037640673 -0.5710999836207 0.9126433399356955 -0.466978763970207 -0.9361714047884877 0.9291694293788588 -0.9883897651814781 -0.5560820154862745 0.03186397266593599 0.8059340348735675 0.1882521864763207 0.2568996322260988 -0.5850552453036466 -0.6420545177314931 0.48633043068826565 -0.03533139052484868 -0.06493988726475242 -0.8592080118328138 -0.7991594894681942 0.3491968497402189 -0.8016228967903183
0.9377578981535337 -0.9001417252497577 0.09442636592342946 0.5389244792788148 0.16396981457909576 0.4052104678207875 -0.48966180050591546 0.27910662681463627 -0.4262619418275977 0.945338570892897 -0.9743535512376984 0.7617132125707002 -0.523758851538179 0.6420902500313928 -0.047593579352158466 0.5337267459401747 0.4060897508816965 0.05659242600259451 0.6806100808210522 -0.4545071928485118 0.8124497010428859 -0.7551138495395644 0.08852030732156124 -0.9967618956286839 -0.6421343925986149 0.020498510468105025 -0.9957410263282251 0.9887728168080758 0.8684432814072487 0.3015366698971227 -0.7194593232542974 -0.9929060198045818 -0.5333639800917966 0.12318782710053999 -0.49696807284158573 0.8366417936290163 0.7562021618217092 0.6151419752182761 -0.7656202924221025 -0.21994522248999804 0.9239806155143777 0.13616830392380486 0.8420198694128438 -0.4516643231572657 0.5004237761298274 -0.04906366434313325 0.5243657591514981 -0.44119266762605025 0.22490859702595567 -0.44276868277375847 -0.7944705915218437 0.3611837427977438 -0.8804499503030556 -0.13670350806755338 0.0726817157052706 -0.7535273386650374 0.3786905012657551 0.3510520314549699 0.17860620951871464 -0.025545315281549463 0.10447396267187048 0.6471443600104625 0.6232480375734406 -0.6031587938947496
0.8374858349185694 -0.8516737916633821 -0.6863189399928711 -0.4035930299079844 0.681695323607626 0.42847768417937626 -0.8713953088198008 0.9905267064434586 0.983961897459273 0.21130615739887326 0.1390639427189504 0.29688472968541624 -0.35883630531703203 0.7085586762089764 -0.15219582115148467 0.18649244714779467 -0.256537515845392 -0.5385662296310223 -0.6997109460697066 -0.8660326039326667 -0.6694510868516439 -0.5218606800023737 0.6576088563944171 -0.1029626539827786 -0.3598443739088548 0.3924221856292067 -0.308015938819578 -0.38626488956038885 0.32921797582938317 -0.8627468307426207 -0.13242816260143986 -0.5271933281516072 0.9803449948061327 0.028122399791417285 0.024604497745472687 0.738702433476023 -0.44185270459288795 -0.2972283341969273 0.16657137810088685 -0.9560329753161476 0.37803137170263046 0.6230180371948186 -0.4202001010312635 -0.7758677956134439 0.8674144984779961 -0.5194644013921281 -0.4628876455214068 0.08275117811986155 0.2912270377667774 -0.061418830953337444 -0.5939895468996987 0.5823271593764288 -0.6002701453264558 -0.5048769176456651 0.7261619227808014 -0.507350894636883 0.6589105153761654 0.99793832267533 0.7442712674090317 0.567373128238337 -0.8339240257966138 -0.9067842323033373 -0.37587101962387437 -0.24345569164443304
0.48232062750922977 -0.06422176671016278 0.24949711707017763 -0.6413933060064627 -0.9751644662188925 0.7217850951592915 0.07342364561552461 0.02111485188151474 -0.7100929245290553 -0.5644348850289673 0.22603854130134327 -0.2030680475316773 -0.8597440285643747 -0.5461098369330939 0.17783053135295357 0.7357238465465588 -0.7952558599887296 0.7299766535251329 -0.3091733111545212 -0.8763886695836927 -0.7196175695353852 -0.9777480479418781 -0.1811560585613703 -0.9235482946694671 -0.35947082819787424 -0.9189712044606075 0.8228040348533612 0.2546969711708078 0.02882413231797143 -0.46627193216545004 0.3731628423047504 0.6478254356523616 0.9775869141058113 -0.5099373666713705 0.9156529738740229 -0.06731009311797842 0.8427227263612345 0.5401711208443378 -0.5049354976439444 0.6836233131549876 0.8230492265964127 0.3903593305412192 -0.12433591966991653 0.17238391444052414 0.61500710219154 -0.9406679771880413 0.10507730174792496 -0.055656473849944765 -0.5152036821094057 0.3462671353514579 -0.8413166571656703 0.9069067082363937 -0.611046100300233 -0.38886074423141537 -0.8167527067714748 -0.5704663978172455 0.045333860920101055 0.275610236495923 0.1642841843979539 0.5726654938283686 -0.9220306576738577 0.8858122080473398 -0.3817688787345961 0.7376776325248215
-0.9382234997832029 -0.26487620057838557 -0.9769912536716041 0.7406695769184406 0.48407760816389 0.3241287246498399 -0.5753705261626048 -0.6736282629072259 0.8987896150591557 0.3143409810903661 -0.9107180238752415 0.3084026524958192 -0.0027754970377673605 -0.19981616822466575 0.2881548889424397 0.14731871715700273 -0.22645373879762065 0.9198230394952638 0.828492456192365 0.03563729402371951 0.3939091323923596 -0.5679326832923433 -0.5151453219892206 -0.666215083354228 -0.81075716603679 0.8180181100106605 -0.5720747780281252 -0.9001528642012508 0.8804969880189071 -0.34299845039598553 -0.30675032006433445 0.24996017019092376 -0.4483635841199003 -0.5705946122708738 -0.6945715252037843 0.16803229874429548 -0.04186378893771625 -0.1239967708366525 0.6767278581784992 -0.3975003651101632 0.9870725800439173 0.4921384610083175 -0.47034089174251137 -0.95948660515023 -0.14323905600922582 0.19563455812676622 0.7759897626844898 0.2708551199491338 0.753784375300105 0.1035070958052029 0.8727636428737078 0.8727841767919238 0.4864024414037327 0.403471845774112 0.5519718711086328 0.7106594538049082 -0.6489229675849166 -0.6112172586022058 0.6773656932038525 0.6919654036129395 0.5648585535353072 0.5939547352001142 -0.3079701935815018 0.9764537577953125
0.3130212767112761 0.6499333252791666 0.9501606393678133 0.06824433290798382 0.27192070695005244 -0.2265076392564187 -0.13992116521065667 0.6036590710210918 -0.8487461043368303 0.8234262175777209 -0.9468048615387048 0.9876485938339192 -0.3927238920300018 0.7223613641001227 -0.2030203452716155 0.10952543642037926 0.622653954232703 0.14142833107060282 -0.05699587272117901 0.567211345222917 -0.8268013400441714 0.4049110676811263 -0.29139053200778964 0.09345296229143085 -0.1055886831193058 -0.8898227191964712 0.06437030125484511 0.690775062060893 -0.5211574227039 -0.7174953787479601 0.18091494429712607 0.9275907133161858 -0.15003511322779883 0.38757102404337185 -0.9487972245237719 0.13983131370701773 0.032944057671598914 -0.2439408013564368 0.12229226061443477 0.3435481931753075 0.24657610094453486 0.6522132774844094 0.14328530039998366 -0.0823870250671106 0.8168860118919041 -0.891939467793061 0.2561963090984969 0.894540278029377 0.7732889393316928 -0.42132330643523663 -0.06762065303133658 0.06525125951127198 -0.5575158357349195 0.963315733457536 -0.5166224631703422 0.8860789804527547 0.5029167767707932 -0.3241978909815644 -0.29684120315655305 -0.12417409292569737 0.01872317326998063 -0.10101477116834534 0.30418206078989574 -0.3101956564794148
0.5017018182420345 0.10400243781773155 0.8444356852020376 -0.3024160364614352 -0.9729332684229322 -0.8326778454922408 0.2852892456092324 0.40664151500197665 -0.820176292987234 -0.8138827894720302 -0.1290796534957357 -0.30502182925583265 0.8815705782746965 0.6447044277169078 0.23441388243465777 0.050044480415258 -0.41470928787753447 -0.8423346597255319 0.38042151933651014 -0.016790309516468316 -0.4077489495447857 -0.3170937481231264 -0.8470760522500753 -0.19404327434803914 0.15765783337617578 -0.20917400463810631 -0.26399941192176324 -0.005284001418433437 -0.7353649119703727 -0.6847682413919536 0.5077066087734867 0.8646324045237677 0.6076111206562891 -0.26825958385149273 0.41058961791750304 -0.7250804454436719 -0.4670209130591949 -0.6125044294141357 -0.5131578150898481 -0.2529037724633487 0.04530239659163926 -0.16458010263883027 0.8035428608046238 0.7648291448017028 0.7879595425357697 0.017559817122783317 0.13318347126546892 0.029226206638914842 -0.7338841598716841 0.9040965676935024 0.2067440129215221 -0.9083491780785027 0.4035046372592126 0.777910730814251 0.3920229171154781 -0.8694073999478611 0.5751243585276962 -0.6028047931934888 0.19350248149496063 0.9244866776613176 0.15901240013083262 0.8400599896590579 0.5075644213136952 -0.6820239147767193
0.7968560682956873 0.30559884946173055 -0.5480827926907035 -0.7375409093612189 0.5994496365493582 0.23019809594522966 -0.062127142858062756 0.5521376700475131 -0.40497004196575315 0.22147316555608532 -0.37449970238573216 0.6078395633070357 0.787639911668613 0.5505196321948207 0.24892482441345742 -0.1428818100762974 0.20954391470978018 0.9103079472055546 0.03863214915901669 0.7679293424296798 -0.4873274869004325 0.20820475805988292 0.14755475478108515 0.2865790300278457 0.4575232118554211 -0.3895917061812495 0.15665306948097024 0.11370756987568442 -0.041175348429854486 -0.6829380189682857 -0.505541561817366 -0.6049602936687428 -0.5182627945800331 0.8380447893551586 -0.9745071517518147 -0.4246363961314752 -0.06820298490390808 0.5072196117626373 -0.5581561248665292 0.534863962781212 -0.6206303441122427 -0.4448949962162887 -0.8365791542302057 0.6599480705871397 0.8427423707210182 -0.8586833111742669 0.9297986975973545 -0.8349520227929041 0.15590508424552296 0.1816028483049481 0.7788194574017813 -0.7831826772148627 -0.28551377897803754 0.1696390583616474 -0.11551807620065535 -0.9567887184486192 -0.44970539913364815 0.62157242301632 -0.9616362271056949 -0.4361640950358263 0.5753758896175374 0.8342554870483405 -0.8052550320841514 0.34692720002273747
-0.623643210631676 0.140925932231037 0.602718166560078 0.12088556168290476 -0.749112600139721 0.851482351118191 -0.26406093586636614 0.4095453431058169 -0.8926294794785787 0.8377257496478336 0.04579792610061184 0.8279825068631179 0.49086129165773107 -0.9207107535677532 -0.10352974523591474 -0.8500369466215043 0.9121890698078992 0.4660831362077944 0.34760136939164155 0.2377977084153604 -0.9235205545037484 0.8600741553082007 0.6584666480223018 0.7452192386822518 0.776344700865184 -0.4589870518544372 -0.5597121841898418 -0.3440797876884316 0.9154144197827538 0.28515898395868944 -0.06598678639829059 0.6756031899470902 0.6250927961544381 -0.07227342789296842 -0.052409590518884386 0.9447044964149527 -0.5139377285306608 -0.8915616904956023 -0.9820515060934738 -0.7146524938451388 -0.2819055235535246 0.021127243226814585 0.1250788418426083 0.33747579271484374 -0.27157354019150737 0.2804138144478916 -0.9526992875072056 -0.46013613553518096 -0.07819897598591918 0.5310740593864121 -0.03545421894802514 0.8822761029614021 0.41353010439679005 -0.09599947991103064 -0.34426142115754166 -0.10934646950758764 -0.29510175387511417 0.21238508415201207 0.10527524893276108 0.12006660915871747 -0.7903081712570905 -0.11742238989813258 -0.8856003975949549 0.21910267397205896
-0.8212262289358647 0.32282517516843656 -0.4903749288486612 -0.4547482644100924 -0.49108291623403955 0.4966954358072049 -0.7953606458004301 0.8223241451182435 0.40104127228247455 0.8320239317376883 0.718678048235643 0.3890928540280665 -0.18166501496012444 -0.03441154795251178 0.5632235791436293 0.9677046085658627 -0.5041972725795334 -0.9314469986061484 -0.8521352971832874 -0.8451786417703275 0.5685902420087636 -0.2977172169674649 0.7775168175521354 -0.8845281956133835 0.8684762791131231 -0.3919015861158701 0.3547217725170544 -0.8469629599702988 0.23056957559131996 -0.1887048434821348 -0.788671519435612 0.6613135092627633 0.7495405962545376 -0.10594207450633575 0.7215103381002506 0.4072170017772345 -0.3975212851322516 -0.1634486517896201 0.5264093565223082 0.2569970277066147 0.19600571173543369 -0.05000484818130446 0.46790846637703143 -0.017807770598699202 -0.523475043724184 -0.267210046019124 -0.4053182772713364 -0.3623191969849269 0.01729725895958789 0.7466889942998782 0.09948271837260814 -0.29809694410019283 0.21000816874277217 0.8856560730343588 0.7553169311824031 0.15422664430006816 0.4232243080736773 -0.9882898853942157 -0.46551364220306635 -0.8381731948421667 0.09363747511354692 0.3877145091497962 -0.12053879308324134 -0.718455544596784
-0.5208715020047852 -0.6894593954752679 -0.5964045246060861 -0.08731386862943258 -0.07655263943631008 -0.674361753069789 0.8025713629612179 -0.4582294489784575 -0.994247310025302 0.2553501172642245 0.06916595966603278 0.46219904176587034 0.9595004392894786 0.31193283370205505 -0.6524572561261162 0.1670875518744297 0.7894556925069691 0.17005300992514627 0.6899015261040671 0.48641275951726537 0.7046056002932477 0.555897241224822 0.4684697428123661 0.6767612909901153 -0.12969951421902182 0.890301365649939 0.24309619498568535 -0.7346797152513243 -0.624615435405768 0.7161682024000864 0.5903299594596108 0.1741109470339457 -0.027856896325640035 -0.35037258622474754 -0.5313832402909773 0.7699143755437321 0.6391884204763083 0.8157449557661238 -0.2734470074276285 0.06769635693168663 -0.07660421356483904 0.34523928694336625 0.30812764664500825 -0.8912003635816743 -0.8940100138153209 -0.359169032232739 -0.4560819824047626 -0.12268535394877178 0.8314782181374478 0.8280129934848859 -0.6488338065963111 -0.4684803951493144 -0.5620204385113927 -0.292483499614244 -0.7073571536164562 0.48951368569286924 0.19797029294797985 -0.8561503359978191 0.4590143158140687 -0.7955884777582065 0.21119548629997142 -0.9000314427967244 0.5006006669101355 0.9029402738249499
-0.8728725370070685 -0.5005447808950341 0.17563610730493595 -0.7245230651861561 0.2682348378680557 0.43303829301984975 -0.8342348905909045 -0.7966708519015555 0.6072077690003947 0.08699308239883607 0.9280013894407486 0.8459026016290869 0.2266122983254586 -0.9594176698955672 -0.7887242966916093 0.7295092972038102 -0.7545458296190475 0.8191421234273886 0.9651544705844803 -0.11573714148281145 0.3145736009155511 0.15229336588438303 0.5547327663333639 -0.06785848988746235 0.04071280551612366 -0.654459823501953 0.4221001566968312 -0.12971773933334307 0.5305168558082145 -0.5945202271620895 -0.4455735715706406 -0.15018683525702547 -0.062017479485764415 -0.09514460373691636 0.8415911220760703 0.8890555150062509 -0.31247935573726426 -0.42862477687528244 -0.8482658088118213 -0.31812341088575713 -0.9244030429548218 0.7282435293753351 0.7690816826887243 -0.7872301110553006 -0.808056485510674 -0.10276878705999004 0.13848843192245264 -0.2373871914288077 0.724930323130853 -0.8028364391928551 0.536723747667446 -0.6487408219473183 -0.7834654325820789 -0.29903804143540835 0.376788648853134 0.8749752475016244 0.34431336932924217 -0.8335506817340357 0.42810125077987315 -0.7492440035279113 0.26247764382426464 -0.5146270440371559 -0.252606919659937 0.5111612293881851
0.0805515816844713 -0.626791969640579 0.2867688505001347 0.9120739995675404 -0.881284568412769 -0.5086045150843759 -0.7136410927300723 -0.6429532221024199 0.5276354695346999 0.029739365902342607 -0.7183007217612003 -0.20504889339384746 -0.6124111166382125 -0.22891101489130983 0.8183824233025945 0.36528184362553984 0.6254481848008471 -0.7411905704251556 0.956292617375631 -0.002700668257123562 0.8847010922292884 0.9480213001137379 -0.7550212299291368 0.47484040255884974 0.3311816698402157 -0.7173983660161212 -0.2719299204831582 0.7014218413400946 0.28038712922316833 0.2787387874034961 0.8513703729065338 0.9106658024888619 0.35897640267391684 0.6949618623724012 -0.8014371772221645 -0.7247299055391272 0.7268924772557306 -0.9078642108097219 -0.327316272073531 0.11965553764984471 0.5379169764308107 -0.24590992847531057 0.6285887200307576 0.5368648442901733 0.8356876642297804 -0.025792466713257634 -0.8833039838155878 -0.30328770298015817 0.5086102937208026 0.7244443678538752 0.9534947801910212 -0.5021889849049412 0.5181647622067798 -0.43402847277217815 -0.8100854964403275 0.3799181558743645 0.13325356065103366 -0.8435769291669517 0.22263387688508685 -0.7092911548627878 -0.5087690871375758 -0.9590313678708264 0.3352219935720555 -0.33522366029344686
0.9553171373316112 -0.2918608485418035 -0.7291376186720071 0.10375375167401413 -0.5684982821041094 0.3071919949269606 0.264325912150025 0.6849918937480823 0.9409837695063723 0.6166343157760481 0.7494949218708653 0.10410572490724346 0.8345266893940535 -0.8523727015217553 0.08875669408850517 0.3441197605235158 -0.35715224129233203 0.2947074413830586 -0.5274502089319946 0.5470963613981841 0.7018449406725966 -0.9109144510337137 -0.10252063415935586 0.593490541285363 0.6457366419751556 -0.056267217987108875 -0.8477584674602918 -0.9085331128608356 0.9531407803066969 -0.3049150116763737 -0.6108719092823685 -0.4057759669611085 0.1241127228810277 -0.5477740087880172 -0.9313101689848009 -0.6581706476050362 -0.7227126778471187 -0.4318862133710253 -0.01282486234108915 -0.5308895764793948 -0.7894507270154447 -0.11546034586525877 -0.757607272156753 -0.397294805536498 -0.25091579820732757 -0.09148133255779589 -0.5602735854778074 -0.4280058516738392 -0.6573042629401016 0.46348165965106136 0.8725774499860863 0.13945749345779723 0.028009146024160936 -0.4381249712951989 -0.11972535645401261 -0.3014718429215886 -0.7857946569478762 0.7972770394929025 0.3785519462023481 0.3191429527064653 -0.22515636782322979 0.20708799712014914 0.7635948810129403 0.12867961262657257
-0.527400816717708 -0.6882451772029281 0.1438720402179101 0.9092445471713355 -0.37752187439421037 -0.03796913976855798 0.2888355017059687 -0.14899075949732898 0.4929337618498908 0.5230126014478049 -0.10565757528786945 0.9792235673238678 -0.5312693739768126 0.7819815942932686 -0.7557350599419224 0.8746312746537892 -0.19769004015000036 0.8375540702550184 -0.28466572523270073 0.9518419634144182 -0.05045310992265306 -0.29308203393070276 0.5401389049566587 -0.7686557020682561 -0.5420246983116395 -0.061120291982784014 -0.6863648317068849 0.008447355014993052 -0.2689952363096795 -0.681987615241717 -0.5127884939972831 0.6582320269249482 -0.15422143533863686 -0.744806540464428 0.4794702252453389 0.5034900661138813 -0.16050650704720382 -0.8450915441732634 0.8899259960804209 0.9589642125045383 0.1854151190857103 -0.6244744122467074 0.6025402625186884 -0.29596668267747384 -0.653034388426486 -0.4957654628606587 -0.7496579098213649 -0.4451879205657381 0.228711377043044 -0.07512124286846356 0.2948321430401095 0.4773996145657553 0.8921816161403007 -0.7173206778854357 -0.7419741397369284 0.6048259680677535 -0.7969459892245156 -0.8589999679930802 -0.5885088053619336 -0.03515144193065245 -0.5365637635921572 -0.40796334334984463 -0.061069509243848685 -0.23125902288975864
0.3640049158634038 0.3504895728974431 -0.627597087169701 0.5486261650279753 0.6722079270037629 0.22433389099641432 0.7439370648047887 0.49109054045639566 -0.3846563007814523 -0.9722441766515988 0.5529195874758719 -0.22916359641042527 0.39528743664562005 -0.15232201158308722 -0.796401501757239 0.46716363944622286 0.43561439777148414 0.6560010171712223 -0.4360678413813881 0.4365222800441033 0.43739769195559997 0.8184052801127886 0.21021232689922575 -0.5430345507776295 0.2689209826921555 -0.8262349227274306 -0.9186917632845111 -0.7655265388562711 -0.30972968200981144 -0.697664148499944 -0.05196222386088145 -0.9278213820591248 -0.9965305106251052 -0.061971646735687225 -0.3047324492176695 0.5923256434735804 -0.4940277358308476 -0.8269688363499021 0.58659686279422 0.01707610774151158 0.46511405496943015 -0.4518371379548758 -0.5969636738251554 -0.7706673666592798 -0.09902310601995135 -0.18713673762794336 -0.6246476271489239 0.5902635399992235 0.6134035902949748 -0.5580935005662309 -0.0795854374272178 0.23122614872785419 -0.6660594986360608 -0.09044702029797813 -0.14357215048811467 -0.24222519963911604 -0.8317791197627085 -0.5525061467195778 -0.2632328798627659 -0.6840413705539989 0.5807298959645546 0.6910412592935784 0.5126288555740239 -0.6310233994687415
-0.7409285247698401 0.8237029686957518 -0.27153268021908716 0.5224633672100629 0.6583634751837535 -0.5979821465357611 -0.4380667647899654 0.13232740060343495 -0.2572340147100016 -0.042797333859462716 -0.2534558844033805 0.2785056431360362 -0.6026186203024126 -0.9265110917408295 -0.07594815519006826 -0.1041191130841046 0.19806096634226455 -0.9045204250425003 0.6220173842073313 0.45340884809204085 -0.47593822189125423 0.3542234008507681 0.2905134732962895 -0.16304434955242253 0.43865730626405197 -0.02750871144140743 -0.22499383413592056 -0.8863165742154318 0.7542203629778801 0.04497551563000757 -0.7839575873842481 0.9261026050969365 -0.9638005511324927 0.7635770240542121 0.7568138237133488 -0.6563669412917466 0.3192171342063239 -0.5379949319311226 -0.543673276431317 -0.8731294874533171 0.3308892917697963 0.8891775960157309 0.8451448419672181 0.04595523644173416 0.6249039951387094 0.1822688862841053 0.19381890986260197 -0.5764032620497987 -0.5271797679825578 0.7132783444821158 0.654298098108238 0.858187039431282 0.9583705485836171 0.7566350669195052 0.23814736715197338 0.25630632989826885 0.5814830312230315 0.6468547591909544 0.7214514781512313 0.7554395292095051 0.8429277671899598 0.5803357218535632 0.9612899950690281 -0.8480462834229017
-0.523003147653404 0.5760178144864558 0.01507849395564409 -0.7525319232317784 0.7761126430070435 0.36819455614833974 -0.2690296234229266 0.9656024688847633 -0.8900582485286037 -0.7920219115055018 -0.4376478833609734 0.6695266627480938 -0.015044011389596212 0.5401331778526122 0.25002826349239005 -0.6438974337166006 -0.7091443822169736 -0.2104198212772559 -0.7706680621019328 0.26068420999107 0.7981834517311974 0.7084373564054591 0.21401701859238265 0.08744888003723483 -0.5439705719604573 -0.06082331210793357 0.3643719862412027 0.09646792437260365 0.5558016268102663 0.6869287650519755 -0.6358546285360926 0.9319618437893782 0.24651927123292205 -0.31347483846960755 0.40993187938892284 -0.7834270688037748 -0.3938700959021513 0.8051947085360487 0.8139953679679035 -0.1286051875745815 0.5407744027433252 0.21212129740322694 0.09209635678809858 -0.29440532046843404 0.233221219976669 -0.1936413406524886 -0.13166500675210968 -0.37310511382232003 0.3006442642449043 0.9009481547612852 0.4461720679804473 0.6770306842020437 -0.7702777170322934 -0.8258490086135784 0.1018685410911706 -0.854690138078847 -0.43145273658237193 -0.43694898602416665 0.6382830118072036 0.12422034102592439 -0.07366482090221149 0.22038920396519135 -0.36274486476660406 0.9069465901320612
0.03124209698194691 -0.8537247567415582 0.480154140637836 -0.5627545686195023 -0.5282738410902701 -0.9258712235709838 -0.9688730264318071 0.7091284898569175 -0.7267403020668983 0.40223792655565593 0.2501460324373457 0.5955782997979184 0.6711376532702769 0.7380574377607212 0.2251718297147276 -0.27201572464006407 0.13942931014405313 -0.6986737713053737 -0.2808806257541603 0.8748761981142088 0.26610914635988037 -0.6870652125362375 -0.8723804884606698 -0.8778977303054734 -0.7079005353373768 -0.738226724055729 -0.06512385406809518 0.22432111851699643 -0.20163341220645825 -0.8474313826580389 -0.7780413057379341 -0.8526348633261502 0.10655699737371416 0.48786016228947626 0.77508414512959 -0.2289142910140356 0.34673491613846363 0.39547825239839485 0.6505388409108954 0.9960445036497114 0.3008877313485365 -0.4536276676403477 0.07472368342926439 0.8953992190629763 -0.23381473113115803 0.844418680656998 0.24020473352088034 -0.5565593401910893 0.34081552897856415 -0.2899671064341165 0.8013760732090676 0.996748682507913 0.3959932342356407 -0.28708625528974796 0.30185895945930286 0.05567121263636876 0.6866578557483298 -0.4214642595307969 0.8353058238088813 0.9553867293379781 0.9519735670336114 0.5971616406297038 0.9211097615085306 -0.6806555529686655
0.7710069298759006 -0.22718594176125473 -0.05699168982001113 0.4253221866999173 0.04540991433279373 0.35978076823049143 0.7060149506402766 0.8953511107053687 0.9880921048959264 -0.33997065081391353 -0.639777233030262 0.7149524148512396 -0.798675093423872 -0.6232221967186458 0.7087878375270176 -0.3195783374671326 -0.7027372718925116 -0.3916620359505756 -0.04821506808030085 -0.8488710339406633 0.04855708245980028 -0.7789715551083805 0.8090926797939193 -0.33100176861748354 -0.6195620367512549 -0.5093551654191624 -0.7104632678281746 0.11929628192483266 0.7404439141008035 0.9284723694708139 -0.4575733535649913 -0.6838884238370364 0.2607947497648213 -0.6087258331683596 0.08258659879677199 -0.01895318756287412 -0.8115559830488974 0.35067247314750527 -0.4558082568151629 -0.10679233325991477 -0.16656506834247709 0.2312023799953844 0.7374646614370721 -0.5876086384383423 0.9500284259170835 0.5395482213953002 0.6383652213599396 0.18005495541739536 0.8345875887063126 0.03024029721635446 -0.15912373650213807 -0.9245877797424153 0.9843878240239601 -0.7849805218341992 -0.18050170571542345 0.3675455794886415 -0.16784551258095282 -0.2746231840628379 -0.04038037429567498 -0.6139382691526485 0.12673676897309716 -0.6641647208000203 0.366402768915852 -0.779133573079589
-0.3544497587988027 -0.7392681513195398 0.03416103644386137 0.14676421712243481 -0.27981013435037516 0.5197950002265375 -0.18902002134433027 0.7655414504452931 0.8200610894461076 0.9845878541069877 0.5131353280448054 0.6568569915672242 -0.03606448802934903 -0.9603587234293802 -0.912423862510519 0.19075341616285857 -0.3033129484683379 -0.11018307924509418 0.012870326095369977 -0.6443944224624538 -0.0011497100317841014 0.034565336276547454 -0.7368949683863297 0.31096111527674575 -0.947955434399993 -0.661053448660786 -0.6061989664998821 0.10956191885098909 0.020930878597269498 -0.4559500357706614 -0.5749065751324589 0.07607177891695538 0.8678123807902984 0.5579254829587774 -0.004423114848767451 -0.4095667801455627 0.45688072265901214 0.3206031223197241 0.7718935063384103 0.5134621778736637 -0.4661567443004144 0.9465635079470369 -0.869073990277409 -0.7391481672633278 0.6312722666143242 0.4262822612456172 0.29803446662939503 -0.6971535777729427 -0.36638776388102623 0.8955655976956258 -0.9169020046373644 0.10447950394479566 -0.6515697760028356 0.9348654914702448 -0.42962319492524514 0.7049339866515891 -0.5763452951222949 -0.411323610355242 0.6796160704980068 -0.5353057937763297 0.38298466592442293 0.35942705381223883 0.6339334594039632 0.31088507219136874
0.9505063148952917 0.9955738768760756 0.9954874759616563 -0.03810284157625676 0.4538798333423304 -0.997547930293208 0.8217252486263587 0.20077087697288043 -0.7892129468437525 0.4214406095142176 -0.32707185355175294 0.5707369020727315 -0.5127005958560462 0.20333387163370253 0.7556816626816951 0.6707691407074836 -0.7340763787079949 -0.3811322567059978 0.7863093691144476 -0.5792908738410658 0.9795740413794163 0.11306494440854853 0.8946934440080792 0.5143626524662817 -0.27365576979832285 -0.7912750599022209 0.8672834235395912 -0.466299403919201 -0.13825913124032674 -0.7732827741465373 0.5245657932677386 0.9475680159199833 -0.38617717895193127 0.8941412700729505 -0.5672694617624754 -0.18952128559540848 0.7762251699957357 -0.9711853891926427 -0.17126499044858012 0.05018361581277708 0.6321315061499966 -0.607057384490155 -0.6882511930671416 0.06985124803892062 0.2146141733489897 0.6505713510779656 -0.1159315738349258 0.997900647619177 -0.40109644321747573 -0.8931234395516119 0.0238830474582572 -0.30955518606195453 0.3221017424038797 -0.27365852640403254 -0.475832089281748 -0.6329095820592305 0.9993461283148308 0.6681237100991446 0.2400067505827439 0.4648627574478039 0.09618869681077657 0.8627408056233481 -0.2733153541263549 0.24639842197590012
0.3005449040729731 0.34078016217482743 -0.7825416449596789 0.093560106944097 0.3391593024636661 -0.28211149345552533 0.653639814855653 -0.4258050327775662 -0.6128247375133224 -0.8491681767738561 0.6962331366938161 -0.31849202695635337 -0.011409672632845647 -0.642483387803791 -0.02540842986551972 -0.5721288900388666 0.048967764363746946 -0.5303097858612269 -0.3163852609355655 -0.8019227523581394 0.2280034955680439 -0.95240220303926 0.12400316240410802 0.2630001572955274 0.9015174350135031 -0.6809128659418264 0.8129905829785244 0.3323851366724928 -0.1771237362260245 0.14813207349152457 -0.027188356789859647 -0.11997439245682617 0.1606588199417207 0.24629210354487197 -0.054107462703824716 0.2526190106798165 -0.24662933877576387 -0.4052847159676778 -0.5816084788848725 -0.6998949509250614 -0.40026588858734335 -0.5199167722394749 -0.37517531757091205 0.05947655299228849 0.5047342571076621 0.3033323289599672 0.05813723271599747 0.20959510519185187 0.561056327312186 -0.4662626983609224 0.49071549549189486 0.2780721942673534 -0.9766004418923222 -0.6688679208834551 -0.74924365536184 -0.6661629776217561 0.5172575302660352 -0.45634031451308 0.8938095733579468 0.2803465721998577 -0.34487351449273573 -0.8287097317499188 0.8218639357686166 -0.6994376250102294
-0.30484161160908196 0.34994943867602735 -0.0660059261332222 0.152776606358755 0.8224326619390245 0.45903872434289084 -0.005174713431439715 -0.5660333185566073 -0.8296082840450685 -0.740175347990012 0.1833822499367046 0.14357688805228208 0.13786217269735745 0.37603163146116203 -0.5287305209385649 0.4422834915378351 -0.9140279424199307 0.2895524841197754 -0.5637835761310064 -0.4276993999099563 0.8902312976485203 0.4467804372660953 0.18374801673294172 0.7374175658678146 -0.9093032635681724 0.24264842206042658 -0.5802832913231917 0.6096511177592148 0.08204043962826413 -0.7837532058450245 -0.3279813312177968 0.9219860451038135 -0.03570031053136402 -0.3891493898133329 -0.6870529439182678 0.7114616251965715 0.8304038019171778 0.16453726636313037 -0.9687189924850939 -0.9294308584370992 -0.9146030044166036 0.4787917866326046 0.9063917095792464 -0.14644974054150706 -0.8804039740340004 0.42162166195311745 -0.6954905885137399 0.5107667963573284 -0.5643908004942566 0.3861878539705026 0.30021248800918054 0.11557537706718302 0.6685509362335922 -0.3755037812030919 0.20200827575208957 0.5871937604757427 0.5130821281352795 -0.38458928905273226 -0.8369854411930264 0.33106273336335157 0.7875551198901511 -0.5769471635948626 -0.37164934815651507 0.14541770408992516
-0.5649084274286196 -0.10697470651104002 -0.15596188164556457 0.22977671077333683 0.4201208353650223 -0.061050240361866015 0.6032507676898233 0.1364656100078332 -0.9174608019856278 0.14314920071938708 -0.8673820097682394 -0.7527127658409383 -0.7618184907840715 0.5203680631038885 0.278336537826569 0.039757552972826016 0.06317060885880621 0.3411407460214284 -0.8686831598240399 -0.9548302239994688 0.29019654646396176 -0.11997325507510581 -0.2536106987450386 -0.5393303650107459 -0.36375996008427336 0.34187214382290443 0.07884210213520637 0.3452187515624421 0.7689736746950964 0.7195407812401113 -0.9384510896443037 0.08689525156503386 0.6860111885356637 -0.36930752237703746 -0.24349584135441305 0.645697392867659 -0.31427285193982946 -0.21160232978911764 0.8097358401928616 -0.8161164638921015 -0.6383117368602769 0.8289473863069734 0.9619770944965955 0.6275039337896722 0.8252694326045587 -0.2631868810810518 0.22450711982769112 0.768206722348765 0.17287900016081204 -0.3250281936110291 -0.4757946599655103 -0.9336657827084769 -0.6230102978823766 0.14783038002965032 0.9822820823074934 0.41096697908333524 0.8670445994699834 -0.7910421227568769 -0.3678909766281624 0.8744673971202819 -0.6571563694346734 0.3528840229056225 0.3543533402269061 -0.43829117525587313
-0.9903722605140108 0.7796585920049435 0.4383548166838205 -0.6540567304420364 0.5796000675882946 0.107064148863935 -0.24581443748088638 0.523761237033401 -0.9799235064297434 0.2361259048896025 0.2368455235810043 0.8959844225788105 -0.6831575315995124 -0.05519199843342637 0.4017615089206805 0.45459960123962473 -0.835067310573921 -0.7127812923071795 0.2737953730617191 0.04868512629438926 0.5996914945669054 0.786274623708177 0.6754754548547093 0.015144632741989517 -0.7950803517546583 0.5586458649464756 -0.2430757293136001 0.30385133320450675 0.840834960228972 0.013190602172371113 0.3885612637391407 0.9283744926659405 -0.17387393314805433 -0.2696684077945719 0.569741230098745 -0.2571863289149581 -0.7546289573303264 0.29388530645938027 -0.2964311585698578 0.2944429940829434 0.6119969284816278 0.9462029914741075 0.9779284788351505 0.12265167555133227 -0.839617175286322 -0.4764417654734743 -0.422118439476614 -0.7717241449372951 0.8677182175159757 0.5874124373911869 0.9367448566428558 -0.7950082611649272 0.6874046897185222 0.5146870758289175 0.6332903491811874 0.35000649994493926 -0.17622860237397764 0.2291563804639969 0.2297255349254128 -0.5097643450428357 -0.9587143702773915 -0.3528373263058471 0.8975561914519357 0.5490470444073456
0.29172691348379853 0.46229436104798216 -0.5483424863331596 0.444668929244876 0.2578573635872936 0.35588917558099253 -0.2571214014514531 -0.5445149864909025 -0.9689781480720125 -0.5932376087667901 0.5903829057593999 0.8930561526052834 0.7195825176069279 -0.9605326985817655 -0.5442670068353563 0.35472602147760224 -0.4509625993933726 -0.2075980310866643 0.4275007950374359 -0.7747386212154979 0.6989991260353636 -0.0070232244187018456 -0.43354271718936 0.1456922539067469 -0.8002036437014677 0.10402921302381452 -0.9242532258189304 0.37777220534997147 -0.7730838463825873 -0.5050987036820132 0.7256922307521039 0.0021761275815970205 0.3220001635658931 0.40263688763847183 0.011852871267130416 0.055401827110658663 0.3108273486165496 -0.7411219157630116 -0.019145537545287805 -0.3664525160404828 0.15906881693226516 -0.7641446113098609 0.2799169332704621 -0.10199983205465957 -0.781557926888123 0.2756468145037345 0.8890208937750435 -0.9264588554503053 0.060017477039931544 0.2706957104889114 0.01190184454115295 -0.1791527837909106 0.9900727780515262 0.4922359416730182 0.12716501672425418 0.9769206064085851 -0.8967831232704739 0.6302731921231872 -0.0038068640983814905 0.14426621070814116 -0.6649094721883435 -0.4383803949768754 0.7949410041965548 -0.48418876458123283
-0.6524096355431426 0.9832807232531429 0.5941305926154727 -0.8417791194880813 0.13779149982576366 -0.17653520215150897 0.7251524685379049 -0.5608288633939837 -0.1076857104028286 0.6298068721773953 0.6087896807594102 0.6163511197565616 0.15580155994223222 -0.8083253592040418 -0.19502254689797827 0.32567356300096795 -0.7592904122743358 -0.7972097655058685 -0.7206477370595488 -0.5678712884525097 0.8293377493576237 0.7150132907749651 0.44780933359289965 0.5646231378893274 0.12433284552812607 -0.7903834200446789 0.45930611896017903 -0.024642201428318078 0.13685975871836242 -0.746930744950808 0.4361748197440676 0.3034937967342184 -0.7919357892944279 -0.5831212046587768 0.08541775776824778 -0.061068878668359305 -0.14880149981752178 -0.8875280992719865 0.1983946094100597 -0.2370401834877629 0.4058804379015861 -0.6555975146242254 -0.13657006096419821 0.38039759582587185 -0.5429616042865646 0.7876483002254226 0.3356658277370894 -0.46663528635720963 -0.2887713760561659 0.8390425368298993 0.8454247653376372 0.3265265372758799 0.06578487549947432 0.16941720696902252 0.7578745700610627 0.9932306352744735 -0.8885545576616547 0.8959577419653351 -0.7972847742247258 0.6155426526658463 0.15394939776701944 -0.9742794744189414 0.604356350328529 0.16133444772190497
0.9315356072260998 -0.4359324065070229 0.18453473848651591 0.43625100814612616 -0.3427649682791827 -0.7141026271417628 -0.7669668907711613 -0.3393545171239474 0.9474376638328517 -0.869465356443611 0.9549691850213535 -0.29918878066408916 0.5721400106641206 -0.7563791960723412 -0.8487757938797931 0.18311432466660293 -0.7157226210566419 0.8815692390358809 -0.104223558114797 0.7858734936842255 0.7405661716436112 -0.8960325966728955 -0.9264397118467693 -0.2508027893326723 0.4161448199824138 0.21545663046342112 0.44302512687455486 0.5466939929055004 0.6483989848568519 -0.6534502280137553 -0.38316776107680783 -0.5993435890336478 -0.39432772710344044 0.05060390090322664 -0.9111079419573729 -0.7389064585473086 0.7689124951803241 -0.7241069603078136 -0.07557379564670286 0.9421724680999644 -0.6663679906546633 0.7142818086147618 -0.16795548991445575 -0.9269076961126723 0.4037093928418274 -0.1549316469109867 -0.5918047549056222 -0.23309309301727832 0.2834619922582873 0.5792598502593747 -0.037826197421219954 0.33349129782236964 0.1175687433608914 0.5866623199496079 0.7456103746151033 -0.7939998717873062 -0.1661780613883046 -0.38703284977976393 0.7691630294596943 -0.2676996178405213 0.26830121361486037 -0.5966547987357926 -0.544999131908106 -0.5826972036806977
-0.8350066139694816 -0.01767623764879045 -0.10679334552095354 0.6438253697100695 0.5082583368793872 -0.13585027803770644 -0.30667467385741976 -0.3160370405561075 -0.20400509514659904 0.5689115652769334 0.587120079687913 -0.41250935036264824 -0.359587112603013 -0.2808111069112793 0.3724384890399639 0.6028134689051345 -0.22409869704196317 -0.552833079736958 0.7141610438398258 -0.3964923779183127 0.9632398438941288 -0.8958692417278553 -0.6924965870063939 0.0964913811535475 -0.20855754326006504 0.16737898052012823 -0.4402093607691897 -0.8606369526833815 0.28926157395680874 -0.6500950389720725 -0.22582818472726585 -0.8051762779732925 -0.14517598825274547 0.08518963783090361 -0.07795577565310419 0.49004418791843984 0.871257734189145 -0.028613453550479173 0.2699519202203027 -0.20633388611849068 -0.18740915751466947 0.1108362098727429 -0.8169068671241442 -0.5122617783347747 -0.09357714782020854 -0.8845272478219923 -0.588613889001365 -0.9248289103495535 -0.2788491407144804 -0.9402694820005306 -0.8438100237047688 -0.25825913611907025 -0.4382384701054012 -0.29611447490942644 0.4206893897397652 -0.5524659289939837 0.4156347771479154 0.05841155006473553 -0.80970393734126 -0.06379235409556627 -0.2399667978492792 -0.6495229368356323 0.6085340515460493 0.22673750796777115
-0.2143227051335217 -0.5172806893208386 0.06549918379473052 0.5938652067544059 -0.883969667098969 0.38042206467758644 -0.8968978874568936 0.2892912868201327 -0.27003888198475523 0.5197787992233069 -0.6038785687582706 0.11057767941383956 0.1847684550140669 0.043344673756575025 0.144483225194864 -0.5253299186704772 0.5168598359456447 0.21121844030176962 0.42871036079043146 0.7515610952475795 -0.9584826239277899 0.8943777956429428 -0.9762846211331744 -0.26979355658253223 -0.914550099195147 0.20694509119096582 0.36503620632294953 0.65243481751905 0.25965348895726903 -0.711694927103836 -0.09535673506538811 -0.6206006642137054 -0.2527590269448645 -0.22705850403292605 -0.10010579439832612 0.4371463007418166 -0.522019984922911 -0.5931003844443743 0.5365749367580646 -0.09609100185015595 -0.7287935553108573 0.10828259879621238 -0.5717762364166323 -0.16320840679399673 0.23998789156083356 0.5573623137262604 -0.14872273850746542 -0.12548076615519288 0.08285611790583913 -0.10558044247625187 0.7331138836615299 0.08589303871456289 0.7657447412499192 0.8625470819414167 -0.6811054259398062 -0.23076601301913646 -0.8180148896369486 -0.26100143024778943 0.8283679335170382 -0.7561441205936341 -0.2372115919450315 0.25703631501453383 -0.2728530509569409 0.8643646032739078
0.4626281430439372 0.11392614613071705 0.5982908341626283 0.03844466397118795 0.757609244336614 -0.5472001223485523 -0.913723061781003 -0.13091499003190465 0.3695163214217023 -0.6750151140002532 0.243667780353231 -0.6022813708086927 -0.9736195593773398 0.4069461344155172 -0.23614383707587172 0.060124310239403345 0.07086146335495869 0.16792064702161547 -0.44728871782350343 0.34565507217575364 -0.6598789662823368 0.055207907207671436 0.8294002362251658 0.7436179033849868 -0.3767943598160406 -0.25858571890617066 -0.9611990206144092 0.5930907246674051 -0.8930138295598549 -0.3892709298768706 0.34236155481073793 -0.2462756435564868 -0.31165970119509034 -0.9018085813540724 -0.2215654049792819 0.7407422686801524 0.44687817898693694 -0.8185797004030302 0.8966118940569339 -0.6018915262097129 -0.6421733798927118 0.31401355663528063 0.5490130304037124 -0.4435658284714161 -0.0011027690623173214 -0.878356471700495 0.9918958397734075 0.47899386792193366 -0.6207940278765842 0.7472859548631028 0.9729308486389132 0.7641747412642026 0.5737054480664086 0.9628038326961725 0.01625430873794098 -0.8878989171208542 -0.7731078313365323 0.38545567717167817 -0.8797752246910207 0.8314355848140769 -0.1637148910314541 0.31769735992418413 0.2970352902539153 0.026970404298923834
0.625921633141624 -0.30223906081797014 0.3860472502452543 -0.23069314177710343 -0.810134948297045 0.9331799856763627 -0.19478751819803541 -0.832102866786367 -0.8648115427062393 -0.9667965869785045 -0.4272674026818417 0.5465278312410655 0.4886454803383544 0.8966709764384526 -0.07153483657857596 0.10253620024997367 -0.7070622611698134 -0.420381328646553 -0.15489236158317077 -0.2558345778840836 -0.8665578525533109 0.30902900623412344 -0.7540792280966169 0.6381895626832643 -0.04185855585339149 -0.7407364182819114 -0.6245320743976721 -0.17128034161224948 -0.6243202912307941 0.6619541971368317 0.7273392998929022 0.5301442658062474 0.037475670338045886 -0.6926261031179197 0.49526065975778444 0.3863092869186866 -0.07355001317002952 -0.9990180450233934 0.7113370574214362 0.9291467347089353 -0.8791326356618849 -0.7867769420650743 -0.01345037706729113 0.6796964822377418 0.4832670277883895 -0.5587976538067931 -0.29945123675228347 -0.23063105828493247 0.4290423137392827 0.7617822141514379 -0.03204263394181317 -0.45766504183895607 -0.08010471700326294 -0.3080959008018287 -0.6027789162260255 -0.26614207230896336 -0.07252484385137348 0.18434656360161528 -0.9452659675011965 0.8959687820437265 0.881762415859171 -0.6363141403231729 -0.5789326464003373 -0.32083391186854904
-0.6012962589432316 -0.8618566907407148 0.8913140716096362 0.9889508628764347 0.012809629447723347 0.2943613331237145 -0.7504624270903435 0.18646681942173626 -0.7340241665841132 -0.7967612056651785 0.9204374951509289 -0.9427956085416613 0.9806824452578009 -0.5040367243449273 0.3150827729658825 -0.09023549333338887 -0.027112985096823028 0.17066195168055676 0.7728233236337654 0.8326563583829969 -0.8753865851756397 0.02240618555891105 0.6289822720682519 -0.43593998067412976 0.76452024513827 -0.7637253235834436 0.3279703899402524 -0.6852935628684378 -0.2203581084438917 -0.6528906333607658 0.5015099168347039 -0.48485296733011496 -0.17167568304951564 -0.2806528499224148 -0.18340121069932547 0.8805296124916719 0.930597809732441 0.6165182033993877 0.8256415582767713 0.6419990027844802 -0.2023715074561383 0.9459431932414955 -0.7111717153649812 -0.9249378277297242 -0.767272648009484 -0.08236192471932768 -0.3284351769570246 -0.2993601539746089 0.030248957355087924 -0.8413985235164783 0.8876732958116254 -0.3025839241671644 0.5342368284199956 -0.1812512097929604 -0.39142910114645146 0.28996773607519377 0.900323278645464 0.3169665093876717 0.1388278099931719 0.26488746831259613 0.3976741312575669 -0.08339583469893475 0.44419874982622587 0.29547075439418125
-0.4216545791312416 0.36673873332271234 0.5350439427621916 0.8995178312733942 -0.12230325855647095 0.5944026114437202 -0.8066985863778908 -0.27048688105862606 -0.999846660544853 0.44974305092291744 0.2314116247382172 -0.5245105140443831 0.9871391745368834 -0.786042329861075 -0.9511207161735082 -0.5217654949674797 -0.3450792674629972 0.9805453964588893 -0.5273546058067908 0.36398075595072443 0.17309550814740504 -0.21292603243945485 -0.9209680708298285 -0.5220743386604492 -0.3119542089162104 0.18723191399946493 0.07847546404479067 -0.26235940474018116 0.566231234428151 -0.546664759522105 0.2413307323084093 0.925859061003441 0.30907814865743344 -0.39294034971992375 0.3305547606834285 -0.9361330294830355 -0.37083282310074783 -0.24713248053272863 -0.10288141684210972 0.328037159866561 -0.8096891554654326 0.20703416702880695 -0.003683666213687653 0.2282509362511458 -0.8409804501418785 0.7471348773395596 0.3579792526242167 0.8329016183732769 -0.06825820372518754 0.01326407210013758 0.7543738121853663 -0.9053078465135749 -0.0038270230364394475 0.5452889469432325 0.8040114867228751 0.22484855822726746 0.2721791139195149 0.9107490113887398 -0.8286875008214138 0.2571415374948871 0.7923516805903945 -0.998648734090434 -0.678860831268189 0.9251069295772121
0.584495799290615 0.2848799061162086 -0.5405775283414342 0.20991083201473293 0.5242329976786675 -0.7331150351096833 -0.24958665796565804 -0.1052090506701906 -0.169742430912597 -0.1265508895312606 0.6425821708810258 0.7294047558804566 -0.8240603644608084 -0.017344461302995162 -0.3619895713953667 -0.8862731130174915 0.7670168923303737 -0.4268185017787367 -0.8587216921736509 0.17787712031551983 -0.19804731932138675 -0.22864550934175232 0.4422876303680774 0.7986534680011819 0.4847614327187608 0.8801727036990938 0.3832317291035261 0.9130694443028828 0.41951425465414705 -0.5368852924455987 -0.9274254469745213 -0.645640043582351 -0.059199908205755714 -0.6255144872979514 -0.7945876335892976 0.3558670741076375 -0.3424607168497007 -0.3753458122972586 -0.5923394880933859 0.7805590999808889 0.8744967144955538 -0.696477946178458 0.09862681888156355 -0.13103801996608788 0.2884193091017424 -0.9200436770407872 0.7032111345525964 0.24413901284692918 0.5805074112644861 0.40351636713142525 -0.49331829737729604 0.31513387126645176 0.9835814856683347 -0.24936557292274641 -0.5014635682838988 -0.4038284167180888 0.15383645644262245 0.6199529287938548 -0.21386037085794585 -0.6984736997645771 -0.5767569173905605 0.4039273975150701 0.8352026484403423 -0.018242129524594475